{"num_layers": 3, "sizes": [784, 30, 10], "biases": [[[1.430849641130473], [-2.8041045363576904], [-1.7492883940131745], [1.3365733936508255], [-3.7810642227424123], [-3.476508110695413], [2.3032461737056282], [3.3289822298573686], [1.0779561652215177], [0.6056341037577663], [-1.0408364426639753], [3.765899041111936], [-0.8418346317030373], [-3.549884861421555], [-3.8025397975899686], [6.232093319576221], [-0.19075551853787207], [1.5987408556584182], [-2.413682552875147], [-1.1744534367268171], [-0.02331035083364985], [-0.23007793288183997], [2.676364268990749], [-0.8938422485008035], [1.2417993700489212], [5.574128942271219], [-2.5600264365922705], [2.5075664716536044], [-1.4233236613940714], [0.9107908651427928]], [[-0.8213555080440806], [-1.6717283027514167], [-6.282455831680975], [-6.346900110820593], [-7.925532116807358], [-6.240324087217557], [-2.15710149918537], [-0.7321160622932238], [-9.798843889514046], [-9.318235102926625]]], "weights": [[[0.14330962959351712, 0.7249281999716941, 1.2520435134414445, -0.5166247519221846, 0.5656103859709773, -0.34263487019561795, -0.007896774708553949, 1.1508103148272153, -0.9426346688262904, -0.02889470196455183, 1.2235112098472614, 0.8070029515539645, -0.5477555884286566, -0.8947702520337778, 0.09157371475096014, -2.133756268023242, -0.5365437926601824, 0.12350563325518137, -1.1491345355250953, -1.155219856601678, 2.9277918791442614, 0.07119117888185347, 1.1419869972117787, 0.7062630984771052, 1.1752582887877734, 1.0091144545263628, -1.74943630391805, 0.7093877365036265, -0.9161707252649696, 1.1511840462938605, 0.11090663520267836, 0.0592675590068455, 0.18714554796000435, -1.7247137988472454, 0.5710240893362444, 0.7559186518234312, -1.187236893452976, -1.083916011614448, 0.90643820719482, 1.1523761472806688, -0.18813162134494438, 0.0435452067364026, 0.8586236310211905, -1.3405714306949055, 2.200152472396206, 0.29708575892328976, -0.3705940839865564, 0.8638154977753711, -1.9595641912133277, 0.05547258456366301, 0.7843408469403285, 0.17160821586069322, 1.4163110944855843, -1.1564525363132987, 0.6412870671035144, -0.43261536550490887, -0.13953677635965536, 1.1377478254128286, -0.12189954826546154, -0.5545978329620543, 0.37418562255331445, 0.13941175946329137, -1.135104958527951, -1.3023546668956953, -0.006657311199246348, 1.5631202812865237, 1.5133298955621104, -0.248737015594789, 0.5425644746078565, -0.6466460484298285, 0.01521827601337858, 0.260365818959609, 0.7846500416087068, -0.10563697437998042, 2.701449797008048, -1.3174473259443586, 0.19584084465316381, 0.26263231422500505, 0.44530487507375455, 0.8027855184092683, 0.2686325451085608, 1.0355823100938237, 0.4965938115381722, 1.0901453940123869, -0.0639646331349931, -0.05226476847599341, -0.5793758402676427, -0.24885520499122088, -0.13246207810747085, 0.6771159879713986, -1.4514632187950007, 1.2530908368686158, 1.159042624230273, -1.500353081487495, 0.5450664549501316, -0.18480475228200954, 1.0730571332770662, 1.3774717594793897, -0.022937040982634493, 1.3740325529565727, -0.6404314407170643, 0.031576517355581285, -0.40596620914656684, -1.4374668255157623, 1.9941861031020467, -0.8806876238263927, -0.21213920137622064, 0.8895179514271598, 1.9518009913154892, 0.5813909776190186, 1.3191092028307128, -0.8886563067020636, 0.015530822122933033, 0.8088593950174829, 0.9634602391456655, 0.9996127812708469, 0.15343079926808542, 1.6146499426173613, 0.21304549531378625, -1.0422773690210987, 0.024210614027273165, 0.8149399334126605, -1.1121835572601304, -0.6731368587073191, -0.32461259111779184, 1.2122668091161684, -0.183026780236394, -0.6262465368432496, -0.27689669428279756, 0.9415308053549978, -1.4705697328815304, 0.3159931702300345, -0.825451425295268, 0.6665862325193346, 0.5182475899550096, -0.9652947650201574, 0.12678394041352473, -0.08235447219500999, -0.8626962615765095, -3.82736874385711, 0.1698198862060923, 0.0077438760078021905, -1.5894974896177447, 0.8929969955411554, -0.06119353018728461, -0.10500963360785555, -1.9173855747204835, 0.12109040851005852, 0.5476652638021522, -0.1700076732379753, 1.5891723276483387, -1.3666806488985426, -1.959674973958449, -1.842783128849554, -0.842792522209894, 0.24996404558613633, -2.116324739119218, -2.0227480334201857, -1.7174074944476536, -1.3123703983646486, 0.3654991050485302, -1.2559070172924243, -0.2515728031638654, -0.1626985390734687, -0.7208882773158098, 0.9128877141972278, 0.7489607905455691, -1.2321515969266454, 0.741629535032067, 0.8576322176222569, -0.362299974973185, -1.9697494354148286, -1.0040863457967344, 0.17106984335985392, -1.0322873004431778, 1.7042700454892672, 0.030235446933257228, 0.8646568815112421, -0.10573015654775625, 0.4558049469151219, 0.4027605723809779, 0.7484883879864972, -0.4254062292607426, -0.6656608895986726, 1.2670259999614326, -1.1617371450216114, 0.8904180845859192, -0.12529001351521835, 0.2604276349103417, -0.6348079899037086, -0.9624721561472045, 0.08885296762848172, 1.1286633795032475, 1.0434540749752266, -0.6685952618200339, -1.6079151716285613, 1.017979669164242, -1.696727023737364, 1.8851692438025665, -1.1039109502878768, -0.5392571361270693, 0.6072804784371267, 0.994509795585419, -0.5291859636328771, -1.1241142394383468, 1.5156036479667971, 1.0845492995471933, 1.3247384693075246, 1.5658460972894335, 0.3777836748261754, 1.6314091436722389, 0.3943551369042166, 0.19917424758933952, 1.0672790774465697, -0.053550238492619494, 0.5313334383790317, 0.4721516074912343, 1.5982798476896083, -0.7187590569140513, 0.5335270028802551, 1.2457592477029984, 1.8024142382709196, 0.9236460838413123, 1.0119597178950455, -0.49839600876954476, -1.132514391889963, -0.3478094501011287, 0.23268371232364046, 0.6048158960210726, -0.26180366483050727, 1.182623972426085, 2.6938685219413725, 0.12857296585517386, 1.1030503778806977, 0.8382500141142676, -0.2617936824490192, 2.262788098604386, 0.9460369575420194, 1.011699616046892, 0.6348361078068984, -0.45641571990345886, 1.2189480898275897, 0.5883942900524548, -1.0491214871027956, 1.8318099572731403, -0.22376436115497428, 0.9382421129231685, 0.9230134609071498, 1.5770910822017938, 0.08042193059932716, 0.9430724608653771, 0.18535311406557803, -0.013383163318439568, -0.38341764475789425, -1.02542412243594, 0.7402414428574899, -0.40745219680128936, 0.6088184291389533, 1.8552672963171448, 1.125631206024309, 0.7772580074557945, -0.02767329681741642, -1.1322895905794343, -0.01169541452867096, 1.7804929359788892, 0.8945819919647592, 1.5558415749523677, 0.20043017308995684, 1.2115582296835852, 1.1122412405307558, 0.9205768361835184, 1.6923532145783682, 0.06844725701253766, 0.42355688393943, 1.7936445022965624, -0.5721172876506007, 2.0338528815901133, -0.47660971350176634, -0.22883137560807879, -1.9365188507766595, -0.7948214889369093, -0.5251424099616444, 0.31774362763181807, -1.5577367039055092, 2.0583406588969075, 3.1538438342766892, -0.17368081675199246, 0.8516759155704081, -0.2622227914348964, 0.4520356045155607, 0.7291689860026409, -0.6300901199615928, -0.9631525435697015, 2.1826165119908705, 2.441520320661588, 1.321744662623486, 1.6867332774092776, 0.9260887738765822, 0.8711598262171109, 1.0490878627026197, 0.09858854554946582, 1.379894604626635, 1.5057550546963139, 0.39285237820791424, 1.3164503406747283, 0.9974995513418229, 1.532939484480005, 0.031404044783831866, 0.25944415752773053, 0.17528088388606627, -0.4562107824943422, 1.9662644735034953, 0.7331853892699804, -0.5912559638779162, -0.19501154510798557, -1.0797147632270814, 0.16674525269038704, 0.6398558811351804, -0.9250828033124404, -0.06356454440854728, 1.1746730194019104, 4.808693132000695, 2.5162808338589215, 1.3410443683729478, 1.0335348011488417, 0.36596505872323837, -0.08640164841475369, -0.6558110427874204, -0.15195168247171378, -2.0876444220472306, -1.7425227078172625, -0.658831248078829, -0.35425772458144505, 1.0003886102143948, -1.6287365543436874, -0.5018732519698413, 0.8646771317534855, -1.8529345367159986, -0.9427961878739353, 1.5345457234260405, 0.39922763564324426, -0.8585841048732331, -0.11558308089661795, -1.206706105274897, -1.1165173265741772, 0.6579583962372044, -1.0269696076088521, -1.71428530231151, -1.8376102327052513, -1.1756846738393285, 0.8621156697238471, -0.5520151368833439, -0.2217678057761575, -1.337876906696005, -0.5489060627246249, -2.126174305591245, -1.3915266871348164, -0.2837623111528625, 0.22332742562539076, -1.5476008394438576, 0.35733933725377287, 1.0639956624724578, -0.6525317674184746, 1.0116734469413688, 0.5227140081223999, 0.8655971862823599, 2.5691248403272358, 3.2614475553088074, -0.9524454238750262, -1.0363578672460685, -0.12923326330168522, -1.1245739481717307, -0.6122730534847516, -1.6687973876400537, -1.3210324029144838, -1.8259027766363856, -3.2153300459050835, -0.3459783064368278, -1.5248153152788684, -0.4153807655062741, -0.7373860212810851, -0.1123541855253267, -1.1616111613403721, -0.9040137564765511, -0.943862719776092, -1.2507081030624962, 0.5674913536368354, 0.3962060204229034, 0.8366007408217637, 0.5866881988352652, -0.5727884227189904, -0.5817698621749489, -0.9849185317616562, 0.343017892265673, 0.5805770430720978, 0.32684485667831414, -0.7842069415303343, -0.6033384846554776, -2.237678131977513, -2.40259993899355, -1.2166284438293526, -1.7990591483564504, -0.1847702496713931, -0.7016818307064713, -0.36515889469468465, -0.4133070077909248, -0.1298924705437719, -0.0715225100269248, -1.5700135348035305, 0.20552987194129327, -1.234022875544618, 0.07084978403191013, 0.25129813135159323, 0.013857559304858297, 0.6106726587655041, 1.0931472441621437, 0.6684470727855825, -1.0608239816455676, -0.2504636734596285, -0.8211027431139242, -0.4295489243411376, -1.56176750453332, 1.638908424516914, 1.0048643803237505, 0.24485408068637116, -0.4726767640376708, 2.0477926928937125, -1.6830289073060043, 0.340868964274879, 0.002335759418953904, -0.0027294691976112767, -0.7355519162949103, -1.5882752860296054, -2.0681596043398485, -1.5198718341731086, 0.3752034319604807, -0.6926603014776823, -0.9210389481877893, 2.341146533812281, 1.3755243492988187, -0.6771209464878081, 1.3177450193524827, 0.26040428659866793, 1.8480082996983695, -0.17238601207716775, -0.8228319732043555, 0.5158794173360582, 0.8569708872537681, -1.0769885746269465, 1.752584790965417, 0.7355498616075069, 0.40222065030816534, 0.6135526863503883, 0.3361778023660528, -1.2013237374977654, 0.033477909099779594, 0.4665570642443807, -1.2734076263480063, -0.7777732805787592, -2.150308796950502, -2.142283997741138, -0.8611059423653237, -0.6572025377338985, -1.4416217759293621, 0.9899876122396141, -0.4983052664003892, 0.7906016519123136, 1.2588050000012134, 0.010596708764635176, -0.38555724597158236, 1.1771853187719257, -0.8294554277809296, -0.6659271561656273, 0.6833424101800928, 0.6045340565693706, -0.16793708667327037, 1.363250304739948, 0.21303247695988897, 0.6612174355399777, -0.05115380527816827, 0.6359671320122097, 0.16197652350402666, 0.013428094014503643, 0.5667415579387151, -0.6341459665016548, -0.37588992549249595, -1.471446768550508, -1.6804070550358594, 0.031113117751552333, -1.0685266528107427, 0.9983824436481695, -0.2983555654329392, 0.09098224505494393, -0.2007160965523342, -0.13533101367780848, 1.4461418953649399, 0.49317726976788373, 0.3917166462815045, -0.48202694498310666, 1.1352780757131682, -0.1497470055202943, -0.2862963550749831, 0.37349903276977026, 0.9308696250524334, 1.313873799652756, 2.1218553514949674, 1.369857586939682, -0.44051944085931083, 1.5874697567414202, -0.1708243131402104, 0.5934734609303014, 0.4294586618039652, -1.0839200777854994, -0.21153421025813315, -1.8710719492073191, -1.4241596245494184, -0.3163790175776483, 0.6260495582553204, -0.20480607726759859, -0.8100559505463851, 1.303480809453203, 3.6489092113327573, 2.8759136268676166, -1.201605260097322, 0.28541600299186537, -0.2873421327728922, 0.5484428562921313, -0.5188325001281905, -0.126639464627523, 0.3349090694644825, 0.3345077979036281, -0.6427720009351392, 1.4769185737837145, 1.4521667032746994, 0.374859783242112, 0.9274808766294406, 1.3809881976997842, 0.9480192831473462, 0.6183010730963158, 0.19508755985163603, -0.4435652462693182, -0.0422504671032902, -0.8326836048044269, -1.265290232708812, -1.0072698782544451, 1.594457241367092, -0.8616731348895308, -0.467091518253995, -0.6880871806673992, 1.5762603319368853, 0.0868121911709764, 1.7143511434070742, -0.28400579846117524, 0.18191306732170676, -0.35899267371997534, -1.636214374737946, 0.7766250474459896, -0.3936089688561025, -0.7750352429681252, 0.7336260139863324, 0.8695459750194076, -0.8801100163239751, -1.5352954965286334, 0.566038400757424, -0.7824035397426269, 0.9499347276627066, 0.602665205227015, 0.346986285345614, 1.5976726538796437, 1.01948007369038, -0.34051280743886203, -0.34588213864614015, -0.9487571289910506, -1.552806387362398, 0.6254369934101452, -0.2608108793847291, -1.7234169634609573, -3.8561646482071987, -2.4075781140866837, -0.45653926685323054, -0.24449166377762652, -1.516451393720758, -1.724070274163789, -0.6798045450991348, -0.8189950277186415, -0.38330666887066817, -0.062438232903607796, 0.00214464246696607, 0.28631250173349754, -0.7479292599116847, 0.26514973497270133, 2.809555352373964, 1.4783141612848354, 1.124688944779282, -0.4054738986902533, -1.2324421910648544, 2.582136441486184, 0.572144121567802, 1.0109241485170692, -0.5805159562653456, -2.512487751755121, 1.006384633495592, -2.045679942647684, -1.4926782406374919, -0.04768835400216133, -0.39598633712154485, -0.645605396639318, -1.0177820564843547, 0.12635695581690723, -1.1630102676381726, -2.4502010166550043, -2.422425450632757, 0.8983533473786117, 1.5376908257904238, -0.6665727632971993, -1.2373031231647238, 0.9441406852962807, -1.6561276636301665, -1.4357944484520355, 1.3280883836268527, -1.6092151246356199, 1.0421995003338085, 1.2688572071488617, 1.8112911220158041, -1.299349741258951, -0.08349385830931425, -0.26880930620450455, -0.8907965539505467, 1.1207577146709453, 0.14134568908408235, 0.075742521055325, -0.5023947852398366, 0.5280608348474816, 0.5889468019337544, -0.7366633084800017, -0.8403176227551671, -2.417154988314471, -2.264393966022407, -1.1477575006811473, -1.9373148012950523, 1.5064159837762119, 0.11094775457845539, 0.3917199623092802, -1.1320228551826583, -0.21174153706757928, -0.9244500961422569, -1.4151239885656697, 0.16352697013788048, 0.33776615089975054, -0.3329348889895956, 1.2459136160233382, 1.2358661428597273, -0.3577593731964836, 1.7472083719868112, 0.9337544783150148, -0.8920138369368689, -0.6301739397092693, -1.2425972024464569, -0.36611416872778996, 0.28956696541810467, -0.35134473550537476, -0.2460251176779652, -0.703108336748821, -0.7380248510478044, -2.57527488107643, -3.0989967746032483, -2.8580746168603044, -0.8246447600351237, 0.5367442814145248, -0.39416749351995123, -0.5578302694220625, 2.346608173219645, 0.6223638759546631, -1.9964172877738164, 1.2691665739584364, 0.2532041047605959, 0.052793682312369916, -0.7432599891397383, 1.9518660257851324, 0.42462396919007667, -0.625994113082641, -0.32702882675453987, 0.6250697439849774, 1.0616379116236265, 0.0751241842048669, 0.8315472959236916, -0.43897916550479726, 0.6950398151839138, -0.40914466491943946, -2.265297090535148, -2.1316178376152815, -2.0066724293971623, -2.833112549534063, -0.8587254496138329, -2.3835396579371575, 0.48072011082024335, 1.0100967391592768, -0.3290543909189837, -0.8491763635785617, -0.6985551060461612, 1.5027476331917817, -0.7933986206116984, -2.092103176284126, 0.20510651922363587, 1.7627029303177677, 0.4153847496975056, -0.31303707951297927, 0.7761570691525922, 0.8492062385377903, 1.478341569407656, 2.5367380472887806, 1.0271875879684518, 2.0040178640391706, -0.8988948297022186, -0.39090743741001943, -0.6490362021958962, 1.783938211995736, 0.8288939068989895, 0.537894125035203, -0.291554195529941, -2.157722083458155, -0.3091174527234108, -0.6249293014453482, -1.6578397878098647, -0.7430919483443073, -1.2528672598267667, -1.0510280809714923, 0.4665196850108236, 0.03627652114955264, -0.27841478715081536, -2.1442307437740737, 0.3895767711401973, -0.16586628297246686, 1.0591505684863263, -1.0263973844244265, -1.326854542065305, -0.46692469099593387, -0.6603710005607827, -0.5014726936278702, -0.8640910421762539, -0.22701842665575628, 1.4350014753815423, 0.591912250617896, -0.20204128284511544, 0.38744029343124914, 0.9305526514115677, -0.12690866329494882, 0.9583002905221718, 0.08943333535625805, 0.35760118339720887, 1.6675248289834537, -1.4956191441615518, 2.122371707219481, -0.6402154776472184, 1.32417815247761, -2.416359106104678, -0.4239475783993751, 0.1814969906329485, 0.980120328895325, 1.0898727168884088, -0.5733474632073341, 0.5961114188514766, 0.6460138403959733, 1.1977001903029931, 0.9343090346322556, -0.005799694419527623, -1.0601261401467221, -0.11424436552278483, -0.5010008213857949, 1.6675861245904677, -0.1937371383210923, -0.7175777498431869, 0.7814797847163798, -0.613410552016971, -0.4049652102660111, 0.32576032949440326, 0.11003908450936767, -1.5263079374325847, 1.3418162782446783, 0.29425586341476195, 0.8555725019468401, -0.15616716751829082, 0.29411057600713714, 0.45289420639810035], [0.4321893494340391, 0.7964386570505726, -0.23496054152883067, 0.510325115181398, -0.024061604222987698, 0.2500535891160229, 0.5097395966057897, 0.011057463261678821, -0.40606440228465435, 0.5182921282598201, -0.7534628425670908, 0.6598824510247198, -0.07363127689316426, 1.7954008395266348, -0.2969930894441411, 1.5598767041113883, 0.39204903476103287, -0.46725864106914144, 0.7825516974813039, 1.4400238516533326, -0.18630137879058925, -0.6991112161316514, 0.6539730117529916, 1.0950145295503537, 0.9008726964459632, 0.8429336370371198, -0.77270361284755, -1.5678526830390005, -0.049069671820023864, -0.4546601212475139, 0.5323292666260897, -0.8129250411727796, 0.3856080608730922, 0.5727394181210537, 0.5096820480162471, -0.08049615475278145, -1.1821111465484984, -0.5996375069015256, 0.3785006011102113, -0.08585613672765811, -0.6442055710329596, 2.793365069259823, -1.2140615868270952, 1.1016410291825853, -0.5387486259778386, 0.933570708569071, 2.488756186795734, -1.2219318137378514, 1.7902247648946465, -0.8700103949207363, -0.9425905274831057, 0.7757254779625811, -0.12670848084202424, -0.49984703305459555, 1.2870492906676918, 1.8735476807464275, 0.09590386897651446, -0.43019135579995105, 1.497287063574007, 2.256168479989506, 0.8989559503570256, 0.01328933814643549, 0.12787942527677115, 1.3498928409295223, -0.2885091702527099, -0.10308546361424999, -0.4273364553672467, -0.12468817151625715, -0.8382059724297022, 1.2440357757009983, 0.41120737665494633, 0.39190191876450736, 1.3706011130255469, 1.1867609956278684, -1.7366285774671948, 2.270321214157516, 0.7709099230054538, 1.261675858489137, 0.5847062932013481, 0.3576760556840247, 1.0874481006002892, -0.6905278938137116, 0.032118895717512835, 0.43794225314932816, -0.5119538862515683, 0.3306001798454393, 1.9607943967881842, 0.4734098915441872, 0.3949979683892225, -0.33920868035298024, 1.0908996512281175, -0.010728732356182444, -0.23339865527402853, 0.7093322081187301, -0.6341733400568038, 0.717531617963324, -0.4728700651886626, -0.5710037304469137, 0.7333933056152383, 2.21988731070181, -0.5754893138126679, 1.8713780534280453, 0.2592451038238667, -1.7255235554722448, 0.1713461728870738, 0.2100174440326119, -1.3626019322057106, 1.335982534164035, -0.8989325919926131, 0.07059982498727449, -2.0007677094720515, -0.6029418327492316, 0.05773854796579501, -1.1539504993296281, 0.0847391306628591, -0.7443989725709204, -0.447113553165073, -0.7679112696755793, -0.24387334498883173, -1.8005069420844775, 2.4420006398993332, 0.6090610680562313, 0.04658210384388201, -0.22731077326290158, 0.6850833172671811, -0.4200337170242419, 1.3936822480011768, 1.4230881921411926, 1.9874296442204236, 0.3110492386695239, -0.7536043681786405, 0.5970443637575458, -1.3383685855967773, -1.9590396961932444, 0.03240665116500495, -2.124429997193458, -0.32287629421914377, 0.13850156310563566, -1.1072797294508394, -0.5440123795583319, -0.23771169376707152, -0.7435747432002401, 1.1101391649264913, -0.5881234679870836, -0.1675549141074074, 0.719025490124218, 0.5948837877505581, 1.7487983579778394, 1.7228718224177852, 0.5777994822965017, 0.32620604637880657, 2.185323626336927, 0.9504968498997787, 1.954321740935413, 0.925688927607047, -1.0672780770667984, 1.1399117081624386, 0.5723286566547305, -0.1070894583059401, 0.11925089416340856, -0.8347679132080663, 1.4097589254667189, -0.578111848148829, -0.977073513005598, -1.3485908884009963, -0.21337900550945638, 2.018943070567333, 0.5689502881034162, -0.6953583623548236, 0.03404968486433068, 0.5894497260957515, -1.634083101455838, -0.817145856062074, -0.17341594988197143, 1.5004000248664144, 0.8872283444565784, -1.1586869768222134, -0.5513366498717397, 1.827850873095518, 0.02139084555822351, -0.48070595119113624, 0.9051873173589662, -1.1631240212582166, 0.13763928504636197, -0.26597384031736293, -0.08311712668884871, -0.3315526174710437, 1.6195324589235751, -0.7512122089933284, -1.1761987918460164, 0.7422603588397141, 0.37484522899646805, -0.5412106609354477, 1.3811012834420573, -0.8185006962095766, -0.8281904773953851, -1.8816230267776226, 1.2389381151257493, 0.08379178665611284, 1.3364220064258197, 0.8267562906445743, 0.5083581268190046, -0.7715699494980754, -0.5904064197218151, 2.5182773249524324, -0.03858772291301926, -0.9758503481520007, 0.8448479764965567, -0.2765172978795153, -0.1416140800059315, -0.35184323804248413, 1.2321041955366194, 0.16077249680193836, -0.7816589594491855, -0.5213264393173219, 0.3218664755274766, 1.0712865142939074, 0.27464336532065253, 0.33062554860349364, -0.6246854753370182, 0.35101646922107427, 0.7484284054767865, -0.16148219075990586, -0.14397284413120753, 1.2804970080216946, 0.49588207424513187, 1.028550262024074, 0.9608035428430806, 0.6937040124104465, -0.3901719554977422, 0.24141341109179748, -1.0118334344482987, 1.2597417343037725, 0.47968850906476396, 0.32327096798731775, 0.21113551981793052, 1.4901739251959232, 1.695634303184264, 1.6179538244557807, 1.0669494872817713, 1.0842636296776071, -0.7669296819997055, -0.36309954151497953, 0.551120096356039, -0.02542058632332591, 0.6728550982784473, -1.3052551673637358, -0.5327983038035395, 0.5869873893613073, -1.5974184371187128, -1.0888758591039598, 2.7681408567124723, 1.0230549948955014, -0.782058179151189, -1.0168452908688768, 1.8390095208068833, 1.2596298198135798, 2.0750287247965438, 0.4201082366559703, 2.1546503152027063, 0.4966153988758376, 0.4442162261471562, 0.14429992179124582, -1.0968433797646033, -0.565015259259231, -0.3227233023648798, -0.6745534247812659, -0.9290338239025879, 0.5988416424981267, 1.3772525635550221, 1.6429509716841215, 0.6566041963928957, 1.2863715462624097, 0.2555627216543978, -0.6271453778426924, 0.6934903309519066, 0.34469940563349455, 0.9330940158060753, 0.8320940366069659, 0.46272917956249504, -0.10273031594192335, 0.3998630803329139, 0.5443031180555225, 0.4936921865942716, 0.29376211689385673, 1.3935649685148914, 1.311342622482473, -0.3232498566540761, 1.3079291284473562, -0.8165702951106988, -0.3336387339189253, -1.965905508776429, 0.3281624897139575, -0.9573616107504384, 0.10001379330388284, -0.49242241971300826, 0.1791614214844181, -0.5559119040908634, -1.280587940132858, 0.2870473234204455, -0.7494430137101769, 1.0310940283623198, 0.2222110413184088, -1.1082346393966105, 0.17446776488648907, -2.6660802334141174, -0.7138083522488154, -0.19324185963541424, 1.1249144001408624, 1.7378495655167994, 1.477088165993212, -0.160287959311715, 2.8804779866541708, -0.07217706436523857, 0.025649461895168733, -0.5602246816113605, -1.6997956794948896, -0.888756688284795, 0.2471621936046537, -0.3431130663224158, -0.06642142598594279, -0.5616664715352824, -1.1742998036106562, -0.29044839617049634, -1.781533121056064, -1.924908255671621, -0.1370582889247708, -0.05041952932174946, 0.4422457556757175, 1.1332251644816702, 0.46340626144303143, 1.8512702682473805, -0.22201937160505136, 0.04179212883134418, -0.251427434297816, -0.8043160642920537, 1.0010251578043647, 0.9690772104698886, -0.8170072367419201, 0.6912112995077039, 2.2264887877372876, -1.3212612980077367, -1.0093945318350939, 2.2954792553310157, -1.0488347607805197, 0.31699179051681925, -0.6339894042015436, -1.8684620782119243, -2.084511071106324, -0.43490559436500686, -0.5957631280386899, -1.8658949849361406, -0.030222431362943863, 1.096078463563536, -1.2117407893300354, 0.31470925448132875, 0.18999981017868797, 3.596620256738847, 1.8743433086458807, 3.585630008440662, 1.3220569830266047, -1.1767629727325972, -0.5031234024922496, -0.03540618668282517, -0.32763432098506556, 0.4343894980031146, -0.29040715025166663, -1.9571284398487219, 2.7215898466425608, -0.23530259661311173, -1.8475113717716625, -0.59263550650415, 0.36018748583548316, -1.0680068117585666, -1.285707900002623, -2.3296548055480786, -1.896103377586333, -0.6049457041724942, 1.3279970032540194, 0.8127682821204701, 0.127912658799089, -0.9899935348821084, -0.11492147867378714, -0.5859984572902844, -0.18474138561029355, 1.1825329437727747, 0.8987205425834772, 0.6399429470527803, 2.801268797336134, -0.338166237920118, -0.4226098961172545, 2.0853168938337516, -0.17031820191611574, -0.5479876904159917, -1.5620510762896966, -0.4601648225855431, 1.4099984363172038, -2.120459182720732, -0.49325899536764056, -1.8543610305792688, -3.7582231276824896, -2.3492027953508865, -3.44433269604727, -1.7211676629270214, -1.353817913883567, 0.2644779834964978, 1.3376736568781809, -0.8228610737354469, -2.0256597226836144, -1.825415153605439, -1.91011461107987, -1.0045438751626963, -1.204771025903618, 1.72780910478565, 2.687772784089175, 1.1576565231464973, 0.6630718931990576, 1.1518731001070897, 0.6460450630541186, 1.0412182892885737, -0.900877573269128, 0.9273317855003268, -1.0383706964728792, 0.6883898884689088, -1.6739784041518764, 0.1248130246461837, -2.265942448603766, -1.3715979530852016, -0.5167496033162504, -2.4835064877764883, 0.024131506501886515, 0.8704300410553191, -0.5989307911306925, 0.9059110550182828, 0.07559740159716566, -0.28148864252588535, -1.4610581023731564, -0.8835491285032633, 0.1839089726684529, -1.0429492890681111, 0.09190643852494879, -0.37713765942961824, 0.2871645227700473, -0.40365479078712085, -0.44761114204197766, 0.5154598433040595, 0.14793953200989815, 2.0681091055629413, 0.7083352551085536, 1.647363818940146, 0.6127471304327833, 0.25755416246486285, 0.24509936918336442, -1.4223606183196287, -1.6889759718017248, -1.7320576517675028, -0.33282907951296037, 0.2912789186734138, 0.8356212683468732, -1.2892238821919857, 1.0737774071593882, 1.6079336289419184, -0.8087820852085419, -0.11244526901076145, -0.36879380208207097, -1.924226338930868, -2.6797471207830945, -0.6199687275463155, -0.3039529694066319, 0.7144084794875354, 0.651396419213356, -0.14593692133863082, -0.20435839699795671, 1.2641669133219469, -1.4327246285117292, -0.3768090809981964, -1.155221771289, -0.22996585890987634, 0.5213279485607729, -0.2479877037788525, -1.0402031421162021, 0.05052743680896014, -0.45806198467801684, 0.8483277174084557, -0.7795134664985899, 1.5453415754665905, -0.2559602900099211, -0.25191011742844366, 0.8201518422645219, 1.6645257855665254, -0.6920836138694396, -1.5396024197295028, 1.0266784222673997, -3.3547593817522916, -3.159002431326475, 0.5423497833896707, 2.5377786672407963, 0.15357589456763474, 1.1463261336511308, -0.4258788609888032, -0.43480870977653424, -0.3918603553697586, 1.1273636567993364, -1.3262361122986728, 1.6886780360382359, -0.7456479677936241, -0.6334405228055183, -1.0923223519878753, 0.16334456340784578, -0.5905529802093036, -0.9511235202877213, -0.06349566278071253, -0.22160859151081008, 0.9452931736219677, 0.5294525819520515, 3.156218958671128, 0.1275802452801285, 1.2616752587804374, -0.4685276091123318, -1.0108292598055586, -2.4885084376314723, -0.8397536660023682, -0.1888159781954804, -0.7926771047459873, -0.6188037394123815, 1.8457036477905808, 1.1632835496735336, -0.8021957886434604, -0.07367259539876138, 0.1199888312799857, -1.0643053376123415, 1.0831251012276313, -1.3937719672745004, -0.0008146499319453193, 2.180348037624553, -2.2794131876611776, 1.3161883248581812, 0.17140003978340212, -0.026666663785547554, -0.16021068303997107, 0.6219990224727652, 1.3805264972364084, 2.1676714736569735, -0.6022053656363067, 1.612338861181449, 0.11041039610240758, -1.6961183354457345, 0.3351355320497212, -1.6480962573699873, 0.8313731512744585, 1.5130037468442532, -0.5881699156269096, -0.01105408372310996, 0.18177301336339446, -0.43265157268981846, 1.7372801188381375, -1.6529919062550316, -0.7429775772031733, -0.28961587005568074, -0.261285451527333, 0.0972918268638651, -0.8936452948826361, -1.2068435209367256, -0.3381428657908214, -1.4303236353412245, -0.31332388617159096, 0.24602311968683754, 0.2743073905660903, -0.2813594038249263, 0.25302718744853614, 0.49892229120009757, 0.9870581252297119, 1.3104756294109627, 0.33892127942745015, -0.3172336544203758, 1.462747941695222, 0.6839138546232698, 2.287629893848577, -0.5517455447900594, 1.3763427696596724, 1.3562229163221515, -0.38783460145947396, 0.26375629552057817, -1.8920211663070445, 0.8824473894063573, -1.399013573418971, -0.5056964340287486, 0.21656470733744948, 0.974877851305214, -0.24704343908112836, 0.08630832953961791, 1.0519384055478849, 0.8360791260780173, 0.8112938373032377, 0.3485127023360992, 0.8387691317736556, 1.5884695349240205, 2.169199603290077, 1.9888604444847284, -0.02869446885065142, 2.5993254535058967, 0.9797497845461484, 3.079316848644213, 2.855553946496033, 2.790929716890558, 1.0208267564919256, 2.981705417029374, 0.10854206028137008, 0.9198916766935777, 0.17543537014424732, -0.41444060314258263, -0.5021179374367277, -0.6050172450268217, -2.4681589294797575, -1.196075457788641, 1.7186378945268015, 0.630351608145733, -0.19728707789441124, 1.2916054799241128, -1.1346976148827863, -0.3632333647609762, 0.7757047765807746, 1.8241357853947544, 1.3805564459460904, 0.14242593617819227, 2.258647091586, 0.09649851574742581, 1.2268979151855741, 0.25238287553039707, 2.4453864994137215, 2.037150016556028, 1.9717838721038718, 0.9519058323016838, 2.084577707100088, 2.0061233475224403, 2.7382382283063817, 0.8937651659646189, 0.3524201713979291, -0.18444522443062855, 0.06804014428765882, 0.3959156272550771, -0.5244442902189868, 0.9486749213713921, 0.38918391823669735, 0.6883623780172036, 0.15146698672867942, -3.13832095714881, -0.5327511452893793, 0.049228854579664326, 0.6258835023976181, 2.1938291701977466, -0.8140401909941744, -0.6995354712930685, 1.2385815464029513, -0.24933484235874842, -0.8448545778233096, 1.4397103067353114, 1.9743255531931614, 0.6579281882396666, 0.4667027686583878, 2.823996679184003, 2.011394224025197, 1.059688991463968, 1.3035508380712946, 1.4549696948011437, 2.551361426446041, -0.7499466532503739, -0.11116672155865133, -1.4453316463044885, 0.20094485633946602, -0.960044843996818, 1.8960606719260207, -0.17887759268881281, -0.31024036789170567, -1.2969976155717255, 0.18170477921546777, -1.0797453485232136, -0.27409694890943537, -0.3728900042192366, 1.0844903046222603, 0.021965188466232924, 0.07629029724963182, 1.9885684120366058, 0.593759300974424, 1.1826376559716192, 0.835129386607872, 2.298552141779838, 2.0090856544647777, 0.5996684866502312, 0.5176125368328357, 0.14210549084181748, 0.9436996374085491, -0.3065883734005218, -0.018386102721478666, 0.7239885382232315, 0.881591336157031, -0.9295378062313565, 0.03566967558352592, 0.22135531870467734, 0.0430027028868795, -0.29658993711345405, 0.1103746486171386, 0.14227011313761265, 1.1472645118037745, 1.1202640036046003, 0.20654189913288895, -0.7740042462175837, 0.6780396099812737, 0.7270338398909227, 1.7933700315209418, -0.5734211072606185, -0.6516421463458446, -0.9056695787950209, -1.1801815264668094, -0.530487959567372, 0.684417321027201, -0.8800001740527001, 1.375046220055705, -0.7827160812351418, 1.3157081517434772, -1.411668406161695, 0.5389482221687626, 0.08795048162523976, -0.4665117857584842, -1.2050791480828453, -0.8275977691734079, -1.1675533033322067, 0.7939353756087705, -0.6434818106124459, -0.5959086037292521, 2.291939708490197, 2.242603328514568, -0.36555719853702534, 0.0689061066743374, -0.021090420905270107, 0.514478763517884, -0.29707591432538977, 0.6405378063652126, 1.1327791439421802, 0.16266055397105525, 0.16180353610963943, -0.5837394058235827, -1.0303922443650835, 0.7368197770792385, 0.8781790809510579, 0.4970369617463473, 0.1554454553382517, 0.7006627740766125, -0.5099851948799227, 1.6302311198568233, 0.1398481693085428, 0.17359577747833252, 0.010780429333812026, 0.027819603666580418, 0.38780157470370064, 0.1613255194718463, 0.6822970283236737, 2.1760744271322103, 1.3712042825169126, -1.7726181515551984, 0.5619043913997277, -1.1310986758299952, 0.664217873360589, -0.8755971747655827, 0.2534271308274035, 1.140304379091611, 0.07343098553253835, 0.11209036840546255, -0.2833979238227429, -0.9020491354021031, -1.5471621612691737, -0.15043797226439726, 0.14187702373677907, 0.9520891625591439, -0.14285418203241365, 1.1428370792434572, 0.599450069813851, -0.19977741570141208, -0.5203623459423274, 2.0089879170645997, -0.9707796949207546, -0.2605475918083661, 0.3333715550931391, 0.26054150942446347], [0.7449525194038485, 0.1904988296851505, -0.23403858116056653, -0.30343293379901504, -0.06039055913559058, -0.64850687615795, -0.7252177792434761, 0.6066585117614335, -1.5754481715042281, 0.8616707749113424, -1.570536433888107, 1.7511656319650881, -0.6422798432351889, -0.8352205639314738, 1.862309091591988, -1.2907793476678204, 2.1885581343485145, 0.8942545466586638, -0.2886637560216849, -0.7440939535427677, -0.5947256264014058, -0.7288589527609425, 1.3565045116388497, -1.0481263143265458, 0.028654814103998987, -0.18545839535679068, -0.3185703800369596, -0.7212985209080617, 0.5424485193906544, -0.9517248631353852, 0.697691642089475, 1.5621631345344145, -1.4468920337774247, 0.8201685638089165, 0.17423139313336922, -1.3343371856900077, 0.19169481065123864, -0.8898919934717943, 1.4911500516365326, -0.6586289379064509, 1.2701981394688078, -1.4825655230189672, -0.6633207581416862, -3.3016317343193085, -0.7003311912279196, 0.4647922546280623, 0.6152582660977723, 1.4097586500999255, -0.6493847173056878, -2.1674990391661773, 0.047715557820438306, 0.40870433928052874, -0.9273944414430505, 2.3507770290482912, 0.059778479797679966, -0.5245450079894104, -0.4310453883142539, 1.3897344901618198, 2.65721532188245, -0.08934577693320547, 0.39518378484461314, 1.099173140119271, 0.2846589821918606, 0.0328927618093166, -1.0173166759719356, -0.4833201442372156, -0.5042692313188173, -1.726446681443489, -1.6250939102410231, 0.42358466176399046, -1.2601161038074293, -0.19297396637945063, -1.363248199497462, -0.8447621845419984, 0.10651555279012369, 2.308652561980434, -0.0032581491183696324, -2.137468364535007, -0.6290932518153504, 2.0793560710344727, -0.953044495752951, 0.8259434799760633, -0.6601929323300088, -0.863020935716334, -1.719237131941771, 0.3281106394434167, -1.8529108889765113, -0.9046429174583784, -0.5116527809993474, -0.40463294363833235, -0.17835595861340345, 0.3827922200265845, 0.712890645368827, -0.750741234732497, -1.9860534178926001, -0.4538596989873969, -0.581191578921154, 0.5022729713659544, 0.2800585959307557, -2.7300699885515387, 0.7613444703906608, -0.7396135408190484, -1.058069700056129, -0.4333467999145785, 0.1772121608009714, -0.23826037465573632, -0.20035862533011758, -0.18566765879760466, 0.29224231832495134, -0.1476785611301563, -0.5253702419171455, 1.1332725531408372, -1.966305048688963, 0.600389272727284, 1.0608324537272509, 0.617268150498468, 0.08689912683713955, 0.28289595614782903, 0.1932026278761693, 0.47260813930678147, 1.1152070200416626, 1.4951935670317549, -0.9962646433093872, 0.06887955305588768, 1.7275734674633487, -0.4883704621427338, 0.4601653003794601, 0.12266421590454049, 0.2783266805656489, -0.5953490356267366, 2.2728163787324465, -0.43443286946185905, 1.9469049535852017, 1.592551258837642, -0.11209448534653663, 0.7577954413502629, -0.39982322831255923, -1.143249654090295, -1.5360445201952546, 0.8146744827523563, -0.41173786218195585, 0.3913637016233932, -0.4411789614056039, 0.7607854035196362, -0.044145358418028045, -0.8526962132493479, 0.03371157810346547, 1.0560680296679126, -0.7007621059777117, -0.1898626277662019, -0.06992538260194203, -0.5496448845583713, 0.2785084325967606, 0.5416996142765925, 0.4753039285126926, -0.24474278526551368, 0.018016430997539187, -1.2805141038116656, 1.613919025637802, -0.6840883813201983, 0.029769270921774355, 0.25051789084621096, 0.981456785052738, 0.20505838217236488, 0.3873727121031495, 0.5175036404269744, -0.008062886139016548, 1.419300283812464, -2.010707870964511, -1.0316046875227016, -0.7462043220377943, 0.7818247011520821, 1.6479471807796164, 0.5063045793308303, 0.593578430462203, 0.876155617792729, -0.10475933350460691, 1.070843821206955, -0.2613485448869325, 0.8275474121542016, -0.5666150864598706, 0.8443362852711159, -0.46088354059849246, -0.04496688843425954, -0.23832522449225893, 0.41688497602840874, 1.0104961750403108, 0.2547058776327085, -0.13130860708662453, -0.8860167141019197, 0.47379837473937153, -0.6436194435722512, -0.8582912431812454, -0.8736813205143122, 0.7770735074169975, 0.5311773018126626, -0.43694829039900623, -0.3074387475470804, 0.023880529847454895, 0.45414864350767037, -0.12171144438950446, -0.013576468916184666, 0.7819062017494551, -1.6699047800309592, -0.1787112580170839, -0.3845760554036071, -0.3348745224724124, 0.026235164540980266, 0.7881242535048795, -0.9774524953986911, -0.6402791377396091, -0.8541563933156128, 0.08478483871628889, -1.6257680488190922, -0.21633636099467007, -0.12155141422288723, -1.4767621685526053, -0.09663036544931078, -0.06480664998690527, -2.7764071311259677, 2.5034964940325573, -0.6279206389757679, -0.7273164187478742, -0.017010437766983997, -0.8129943894693978, 1.0579755126280508, -1.0939853295243473, 0.6273479623869608, 0.36708531940612477, -0.20300304798650756, 0.47147704058543005, -0.011917924586144369, 0.9919303111857314, -2.4297864382333487, -0.31926659972220006, -2.518957241580217, -1.4655075662630086, -0.32085386417365114, -0.3481158605863293, -1.0460667561050452, -0.08008191171102619, -1.3806444981146437, -0.9869159784342156, -1.5418162604010952, -0.3935631088493354, -0.0005011991880018162, -0.23388997969272649, 0.1304954022159249, 0.7847400816176323, 0.2586456873804619, 0.1489056937820774, -0.602697042784603, -0.9090008485750347, -0.5664424925928155, 1.8178897477570473, 2.2986817580306553, -0.2708897226091672, 0.37049711277294406, -0.6517435342387968, 0.49223120924988234, -1.2731912383465, 0.06182608426416877, -0.6161754786869202, 0.25961678293720036, -0.9569387767617614, -0.012802228981066277, -0.447533504184943, -0.4078186411222905, -1.137433279939268, -1.0672586617454505, -0.7006215017223082, -0.3963804076756369, -0.21371468558373682, 0.17261580983622515, 0.7146493750745414, -0.3880436615320758, 1.0340666244598395, 0.3888951170765385, 1.0989694400111125, 0.768723146234902, -0.8014381701318302, 2.2267098894545567, -0.295303096749579, 0.7058844977801813, -0.8335849989525902, 0.06591764601035423, 0.2119374257362294, -0.33421622595890693, -2.0084299416605678, 0.10924855866730074, -1.524283848066338, -0.6812004040410721, 1.7348081676321374, 1.4611399414864912, 0.4609469035035049, 0.7181434507579376, 0.8378897374286818, 0.7615515104974848, 0.34131808999365654, -0.7174381833521918, -0.21410387188723923, 0.1639453645597772, 0.5332459757443465, 2.1305900703917926, 2.3982032674102025, 0.4985612155259142, -0.7200228504038646, 0.4212223846625229, -1.5356262399637317, 0.018161187135349355, 0.1449891204487491, 0.4114626139890587, 0.07303087416199805, -0.8183136111232995, -0.342419726903362, -1.5217061889053745, 0.5590588754996794, -0.1743159430574382, 0.2471336072127687, 2.7184074622977774, 0.3872612284954972, 1.2311260814192855, 0.6879108915995965, 0.5970313583459974, 0.21662994059448246, 1.3605398383081282, 1.6867471650349775, 1.806825135772166, 0.5564210855317898, 0.6005256416631017, -1.2482173017451526, 1.1298513858895132, 0.5623231967701362, 0.9232128105256168, 0.3427777309769826, 0.1422765847299629, -1.4371356537034137, 0.860541277420878, -0.17357451301071816, 0.306533319105257, 0.3242139103148824, -0.030901766790427356, 0.0059783320709326385, 0.8483246576512391, 0.4343254313536203, 1.5285730642438793, -0.2771464826566656, 0.04472309599629691, -0.03013176532738289, 2.1403531610242075, 1.6970545290576777, 1.6820443913712206, 0.610858992086669, -0.18220367696415996, 0.44893016796038077, -1.2159296728267446, 0.6943008954731781, -1.4158288318004077, -1.7734304144752189, -3.9092122567811214, 0.3007276451400165, 0.3818205809170604, 0.7348972893397746, -0.44893919037932967, -0.8278376122284694, -0.25248403717693, -1.8603554792895878, 1.4076842804202485, 0.14269893508437193, -1.427228920776948, 1.1587074008058078, -0.7286513405006578, 1.5961340637665222, 0.5377854207485, -0.0824581396113296, 0.021545273742962008, -0.5189746302671899, 0.560293126873534, 2.0672352495407096, -1.1697063679865358, 1.9388282467576996, -0.10699169594492709, 0.4684510162136287, 1.1016157255020205, -0.9797492487264349, -0.08723711207030378, -0.2208624569981856, -1.2986950365470245, 1.0256446125639576, -1.4492567309730302, 1.9350887867188655, 0.30121899630854754, 0.6396839128196214, 0.6798792801902251, 0.5989439246192343, -0.850027661386274, -0.4167301513449736, -1.7663224314101145, -2.9260390295336323, -1.153470406870168, -0.16591932418834335, -1.036050952035564, -0.24365101311695903, 1.1450975662312788, -0.5538699866124002, -0.22691808345940467, -0.17227717219226082, -0.06458169303375685, -1.404404548946663, 0.40966826775718784, -0.5946140111930878, -0.9637014733421805, 0.3508390555041508, 0.9948929557069963, -0.7644533787090652, -2.212653940070557, 1.0724626793958614, 1.4656321379973487, 0.3599441409417344, 0.5227681613745904, -0.8765473463740665, -1.1047917770254545, 1.1005320619230827, -0.5545368600404145, -0.07784522953110862, -1.3177397243928584, -2.4062221852000913, -3.0248162318916685, -5.060300216119451, -2.3806318040608554, -2.7764512782371735, -1.6352595983780496, 0.7824624674750593, -3.9610221539285613, -2.2830283492789016, -0.5498583426919004, 1.3161745991436884, -0.030088005933943496, -0.14781752068124263, 0.759900357855585, 0.8989401857515775, 0.0426668114696568, 0.49558629925632663, -1.2110609193704729, 0.18695120777750482, 1.4335774007199202, -2.3090424117558412, 0.2174999576743084, 0.49825385484097184, -0.3576793932140502, -0.732262373796942, -1.3913612740757493, 0.08010292995686594, -1.2741817433778013, -0.3899598682397204, 1.0970508613863958, -2.1419988852316276, -3.500676844219691, -2.8364935737526555, -3.469318907679392, -3.293763031871386, -1.782724787375879, 0.6352146254088618, -0.7013289988060081, -2.4864646276941045, -1.5760623118919344, 0.9346426916551417, -0.825902206505264, 0.5315932820862882, 1.533200922768085, -0.019345482616085808, -0.9317720261583695, -0.5691372071224422, -0.18897173307000953, 0.3317510123039089, -0.8735146474789431, 0.03788697285790687, -2.266087916166722, 0.685308556672118, -1.1793125411563192, 0.3005932591782876, -0.4783547454712953, 0.33225253273843236, -1.361659201228895, 0.30378230923354305, -2.9477650151719277, -2.549040762402648, -1.2426427333645331, -0.8894701341009035, -1.583109113017774, -1.6308801344142674, -1.532858064653421, -1.303771932300404, -1.373865051690265, 0.09987179041388466, -0.2908039039527816, -0.5884491217495205, -1.3712757541662295, 0.3851280950429665, -0.601311217050325, -0.15599848821803364, -0.9817430449516467, 0.4543384822230875, 0.2538857447308142, -0.8943626708298394, 1.4173703545689416, 1.1605179784323856, 1.5103684104043757, 0.9743584148268949, 1.1264758693030266, 0.8785126479017067, 0.5678263694523633, 0.8006260083825771, 0.7416195966521265, 1.0253060390946989, -1.0619888923928669, 0.04195798644358184, -0.9811296572230653, 0.22809159637792084, 0.5670553904955287, -0.6097602825148427, 0.15898608843484469, -0.2127804310546397, 0.29541513990923923, -0.03887783853963562, 2.275683820825936, -0.07335826489948091, -0.6149860372923871, -1.3255205853234233, 0.206754050208275, 1.1105575440795992, -0.8288877926124862, -1.9865013375229237, -0.600972996885159, 1.2892844253285192, 1.950911469045684, 1.2594724007777187, 1.0749823617222412, 2.0411159364915092, 1.2949357381360442, -1.012701769683189, 0.8172460477914189, 1.3769464955534, 2.778029478055587, 0.8314380353023867, 0.7336390042314009, 0.9438525059642275, -0.7072284859452728, -0.5525222756263038, -0.497547722509872, 0.3050433885182421, -1.1232185953840343, 0.7336237836479171, -0.5966727464948949, -0.7277699978395094, -0.8481788735467822, 0.4701029898910479, 1.9355830979815225, -1.22723975220634, -0.5821408288234332, -0.7108564146576284, -0.43924817990339565, -0.7939876021731295, 0.4593566122101654, -1.469759894015985, 0.6892087395608442, 1.1019055137300324, -0.3218752635341689, 1.1081811750726334, 0.514836881323647, 0.6033909997187659, 0.48289176740315887, 2.18363864547723, -0.0002935491801224006, 0.5542322871384165, -1.8372828916574433, 0.650469634384468, -1.0387721121335665, -0.45667438062713805, -0.9255662480161752, 0.03979832425112716, -0.040713226339743384, 1.1155085548379091, -1.704783585791167, 1.54864126546662, -0.671333988669534, -0.2522560342682324, -0.5285960152287674, -1.2186202961953407, -0.013740221616195588, 1.2142835523506084, 1.2727412906941822, 0.10705548867913245, -0.28038004349798235, -0.5624252580018081, 1.868434174858106, 1.326065671153013, 0.01670734919596581, 0.7204792283477721, -0.006454246664535565, -0.8379607827635731, -0.37078769625361996, -1.4299627078249544, 0.5681988237216394, -1.4403151036283142, 0.09774990728837057, 0.12356070441802208, -1.1866385364715575, 0.10129502993963083, 0.03580889885821334, -0.04215290504131801, -1.6558931619839212, 0.8651017288393573, -0.48266036737620216, -0.4093194545205582, -1.0981585241587513, -0.6104734634010477, 0.09402110463022281, 1.1541108197556629, -1.6810339554133917, -2.5867284646278716, -1.4462539889492902, 0.15441622324272772, -0.03182439290078701, -2.1141555136415957, -0.5233967399168297, 0.47005152600349215, 1.3186289328265932, 0.06703450670062894, -0.4537815710925455, 0.10901642416172327, 0.3181769477220236, -0.5229995815276357, -0.9797814309185175, -1.10060924505041, 1.1235401461046717, -0.8194115940590928, -0.6069277056259855, -0.8284997217526912, -1.3758714944390182, -0.2814087743764284, 0.02276804043080348, -0.11107117860014772, -0.1481054591663974, -0.049209498669239515, 0.6667616697198799, 0.25701434160177994, -0.024105086986446252, 0.5279641023713487, 0.10542763945090552, -0.5380831354872802, -2.490590743587076, 0.17677095698015308, -0.7287914166124664, 2.162052877254187, 1.1882084927430736, -1.3749991699726767, -0.3846077406285374, 0.8020232329507176, -0.4353343609805686, 0.5500832881637837, -0.5864879448952651, -1.0386419859229323, -0.04684146904471114, 0.6055898316780534, 0.7153390473163695, -0.9201474685027573, 1.0738279014492644, 0.1810086146101346, 0.17291452402985993, -1.2180242599435822, -0.31661092166102767, 1.1596391356405944, -1.9866535443604612, 0.23797257572290692, -0.5405307277444018, 0.41159792820373814, -0.5249637432537708, 0.8278390543618837, -0.8128611929587155, -1.610613190178137, 1.5585101344195256, 0.3039825151793341, -0.7373438855844591, -1.4482606247678973, -1.0669045090937195, 0.5123889577117884, -1.530510370982003, 0.1446631499020815, -1.2595102302813277, -0.05187778615327142, -1.1732371028222162, -0.7326731791017106, -1.4448484950218243, -0.5023928399567541, -0.15881370329774486, 0.490465797216173, 1.5908173812507362, 1.0908532959134423, 0.3452653113867775, -1.5556138665242614, -1.7690227379906365, -0.4257743182653649, -0.7759073307562653, 0.5491889021846157, 1.770023357769486, -1.9519438328639511, 1.004162658226504, 0.7939230543108241, 0.6907326677469127, 1.4810082815204741, 0.6943078812198274, 1.2214082927158245, 1.5810174421047702, 0.9022912340756327, -1.1751557667867352, 0.10610379032570562, 1.4676413352833761, 1.3795252949167818, -0.21004013315963105, 0.7826254579447801, 1.2956702277420475, 1.9341901464206404, 2.034412428019282, -1.1900446357325238, -0.879994795589531, 1.46767349156314, 0.21273844832828695, 0.5037083099808691, 0.9153956560855723, 0.02534720604665234, -1.793958306524637, -0.0586920647362338, -1.256173669853013, 1.8666669965704172, 0.8612394583616715, 1.9480159476102905, -1.1709692706638968, 1.0203773140260248, 1.4804425651675737, 0.3654378527393897, 0.5995465051985589, 0.4524056985975423, 0.11651818027295548, 0.9864364224982767, -0.024513874441118428, -0.3344206353019458, -1.8151832845268963, -0.37862092692022464, 0.02668385391808218, -1.0136547546510926, -0.014288707489939797, 1.4360392069441035, 0.20923145934882245, 1.2178525008056542, 0.7759922730096824, -0.7927937391285118, 1.514888072464419, -0.0881092679170068, 1.6764497106580003, -0.8409126575087946, 2.6598574324553295, -0.10403382059284685, -1.970386323441993, -1.0394701155382866, -1.1709737262288826, -0.26800110503630137, 2.5108009901668353, 2.272313942446182, 1.8187724945626802, 1.5006036883577198, 1.3611062648735108, -0.2798810279023304, -0.12282436843545176, 2.1075070069041124, 0.09395184649936554, 0.05061066702858542, 0.2910930612676771, -0.06415971324092375, -0.7107123935930755, 0.7353968438250779, 0.42975337662844704, -0.5595288833320664, -0.1727925392078394], [-0.7538245589549535, 1.7521983358042945, 1.6897837368866166, -0.3903952799338523, 0.9668296601839032, 1.3571897897079932, 1.509529096078855, -0.006461087510632325, -1.108139546047987, 1.6523015220778723, 1.4862483916277245, -0.773520748950652, 0.21504485633859824, -1.2889527435214228, -0.2553369995999236, 1.2572565627848107, 1.0892306571317083, -0.5035879060635745, 0.3263026770656229, 0.11097916032096357, 0.34186276995156123, -1.5707909864407645, -0.08266425994477594, -0.8253744185687462, 0.10585901262395894, -0.943152343301887, 0.4906235076038381, -1.435544366087858, 0.7258456956408429, 0.15850519802367166, -1.083493650035048, 0.4974087403129533, -0.694177685696118, 0.2734731863930232, -0.7945072880463104, -1.2887024348446967, -1.1434253915601136, 1.548777270085005, -0.14501845315115114, -0.922484979278994, 0.6484508890929921, 0.7965134042170386, 0.42981626642090565, -0.6148290739984177, 0.4009145434239423, 0.5195172715428249, -0.8890062178503186, 0.6038049119309158, 1.29403011026537, -0.9672218257471387, 0.4032973911262661, -0.8404340714906632, 0.9565985216033563, 0.9549159073323598, -0.17673512755358475, 0.1961377564923792, -0.7843954540973826, -0.07876758496118068, -0.46979192100743195, 0.09106976588748776, -1.0489634613206442, 0.09088728474121989, 0.021286402178714182, -1.25417807989735, 0.2928338532544727, 0.015478217752585385, -2.4290498761837838, 0.01998916326112263, -2.602306855468753, 0.41739771935466385, -1.3579964206258865, 0.7433644907657675, 0.49550846370862534, -0.44679880466065436, 0.2938516049313018, -0.3760395081335287, 0.6705463345910178, -0.3643184195216238, -0.22692966558890634, -0.3895834856406098, -0.22889374675192903, -0.7209843430652921, 1.0792302585724762, -0.3412658128602356, -0.9423795357209706, -0.7554383336070911, 0.939581687643618, -0.029517781873285076, 1.8323603478363018, -1.1263350309529683, -2.8047752826830368, 1.187586179537997, 0.36999153454995176, -0.17548395820831722, -1.575899945774485, -1.2031035960593026, -1.9059096065278387, 0.73324671126273, -2.253562652374222, 0.45354020537798945, 0.22780408977172534, 0.35418193126748065, 0.39207504514243524, -0.34241026124273094, 0.43946002074458246, -1.2466516974435877, -1.0402862572136373, -0.3748369508345868, -0.1260247299042359, -2.056257013822343, 0.032762226616670845, -2.1141363696872153, 0.16614258274081686, -0.5926528965765495, -0.3857240528250263, 0.621757149581565, -0.2899307982758697, 0.9853378525711973, 0.4131880045806405, -0.6199329053454632, -0.7867582633788981, 0.6633041856207174, 0.3753897070557595, -0.6650501895669785, -1.8899263269024063, -2.811692651460579, -1.0431399846713918, -0.2110959047009179, -2.759849408659516, 0.7904663845172126, 0.3358852708157773, -1.5233271299573319, -0.9992899190859204, -1.0522606415027542, -0.025247129033738838, -1.8966195639542829, 0.15031642300083278, -1.3525725510793618, -0.8370786679227008, 0.9675719780365799, -2.5559380910745935, 0.9613229549425153, -1.116966295713455, 0.03602887139492702, 1.7797710358433807, -0.9899977095968554, -1.795464592758196, -0.3659962999422334, -0.7030231151734055, -2.0133829705083355, -0.695790188129222, 0.8621582353233754, -0.0031255198642513903, -1.0422285586301199, -0.547888326300441, -0.8032127269590742, -2.1803948657698946, -0.34100284004822906, 0.2229591614582191, 0.8534985000729131, -1.8357742303907727, -0.5555214488324385, -1.3498152468827664, -0.4867972867693893, 0.40243475298378106, 1.009113397297283, -0.20890712016592655, 0.09470410536326954, 0.2900824093489293, -0.892738116121815, 0.496305800023972, 0.08964313505244029, -1.3900894151112897, 0.6847050141838233, 0.7940857141047657, -0.36845175201948727, 0.677241553655292, -0.11079463969476917, -1.410303034257522, -0.18756098668214116, 0.1631163332580606, 0.6114420569721409, 1.0265341522567397, -0.7629708406470779, -0.40432040463462304, -0.14989143958977885, 2.4760266291206743, 2.671800246338158, 1.198484189765619, 0.0314001054834763, 0.8700084680629012, -1.9550924813334016, 0.8010335976851657, 0.050541982467992616, 1.6172510016618842, -0.25444829357851256, -0.7721982088460944, 0.23644972916988197, -0.27509910298050577, -1.3172134642269278, -0.9699165195761603, -0.7207215001641033, 1.084957329095751, 0.8963056472969869, -0.6975171605694713, -0.09960418834630623, 0.06705509229702644, 0.5755851254950611, 0.08841734057605444, -2.046299564458966, -1.5883972600926963, 0.30624630035221395, -0.2078650583910474, 0.8367013581471142, 0.6360042924464809, 0.562351010085834, -0.16085355333545806, -1.0057285496110084, 0.12009683763641253, 1.4073632403469536, 0.5746228933658064, 1.1323813614593372, -0.41751066635073514, -1.1863937294275864, 0.4140190860344026, 0.04480965765884832, 1.4434468649629737, 0.8383741292130293, -0.007504203552945538, -1.4732644035678897, -1.0682465169395476, -0.3343486791507073, 0.9568908452819076, 0.49047901509076136, 0.5985833626248017, 0.2470849055918899, 2.0069624685606313, -0.8514911581513948, 0.45648300353188404, 0.49123352933790654, -0.1563641774932569, -0.5259236865090129, 2.572213694296657, 0.3276625332654241, -1.2119262227049283, 0.8146766436997008, -0.5777375050614845, 0.6837684034891593, 1.2511668371783558, -0.855537391900477, -0.7044186042269311, -0.7526511804208678, -0.6331020118134445, -1.0036986758149251, -1.5973907380723793, -0.73920618704869, 0.5662141658591099, -0.21693924333527959, 0.24463491230348808, 1.0178760059773238, 0.8672743742460144, 2.7351253948737466, -1.3751687419779381, 1.3436225316386572, -0.13993017424503895, -1.7668104195727026, -0.6403904395099222, 0.3550659639019401, 1.5994292256290494, 0.46906730840695043, 2.037318012483713, 0.5017224023834724, 0.6790354543055979, 0.9560594396526492, 0.3155392586810956, 1.2211682277968472, 1.6254259436842002, 3.1503351115792166, 0.1969769041412834, 0.8293734643590858, -0.01364471844094026, 0.9985519120672088, 0.9952973312341719, 0.44029193359548, 0.544174313556879, -0.25761835680844863, 3.4148123346417223, 0.7568075203187027, 0.8423417562980307, 0.3361727163790674, 0.25665948598271715, 0.13892351988339421, 0.4843107575506691, -0.37036507860771095, -1.2759082890092586, -0.8571719426872907, 1.1693274955803161, 0.13209638960570447, 2.1832114864398284, 0.5563037731386946, 0.010859898213247144, 0.6997581755673666, -1.661304536303722, -0.6507395596231604, 1.1237958956662126, -0.31485447234069874, 2.146759839162623, 0.6468960633549498, 0.08881068433134, 1.2584515290283755, 1.6208870523070533, 1.0246078746266822, 1.0284841577697115, 0.32307632864967767, 0.7535131525861816, 1.0492443780066631, 0.4479415283177721, 0.697741867849158, 0.49623214971704915, -1.7013948668246994, 0.2458527433470459, -0.07942916471966764, -0.2443660633347798, 1.2738427350188288, 0.1284712782230705, 1.5722675003534632, -1.3864856869150812, -0.2486170428204927, -1.1193361455091215, -0.8575827709542742, -0.32353183651712447, -0.7368658175237711, -0.08684529552886144, 0.7737668109214235, 0.125398168095697, 1.6773093387129836, -0.28973017034775017, -0.06039757644777067, -0.5072441674844596, 0.3487125654890127, 1.326521066952015, 1.050894064266878, 1.0455065953179998, 0.019686615999282526, -0.029649347730214545, -0.6094978949298281, 2.236312689755104, 2.008294428875255, -0.755250438537753, -0.17720427675765857, -1.0434745925212232, -1.2425003230694844, 0.09814212025017008, 0.8346519328323886, 0.48553481048303654, -1.0596473208035027, 0.4525898253656054, -1.2244896932347737, -0.7263974332396247, -0.9444256199502828, -1.3318320603519014, 1.88314999205778, -0.17755012518490715, 1.4428423038925269, 2.062817033857193, 1.981254790366833, -0.9424404901469902, -1.3239819534222284, 0.573052058878165, 1.3521649192906282, 1.788894718305291, 0.7330196116967707, 1.003798348346042, -0.3220345707400376, 0.42107429185910616, 0.3080623269668082, -0.34442609913694844, 0.7222138513740138, 2.819309081349966, 0.9526366840109933, -0.7000881308106558, 0.17866198799706184, -0.9033340265017388, 1.4805951713229473, -1.1624016096887257, -0.18686989963245668, -0.20101765843397176, -0.6499221906380088, -2.9540106696961552, 0.47814318887951457, 1.92937740357584, 0.06197609917905192, -1.3175618398704594, -0.28061293638466195, 0.47201986818010566, 0.16494145087360887, 2.044147443141866, 1.9633526058060629, -1.7996666576891978, 1.6471716477641882, 1.2345771990291896, 1.384650737232888, -0.5202363409148959, 2.4293151316698864, 2.119766445672849, -0.4668475355331018, 2.9154232179648294, 0.8262726195892349, 1.817734410560014, 0.8475030487764077, 1.759860851852691, -0.19167104906611407, -1.3053605002870192, -0.19506125677106775, -0.3868522165272105, -0.7658736583012669, 0.005116479955044838, -0.01553903953578635, -0.6866433301098053, -1.2331094289889755, 0.0815401004409622, -0.43759204227505066, 0.3776511877482063, 0.520100845565814, -0.20177112626564903, -2.5655111680132685, 1.2798487472481845, -2.019473838326847, 0.3622726893924302, 0.6582247308522421, 0.025454479001696558, -0.6949676922715253, 1.3014309549582705, 1.6077324299739078, 0.5441826368439022, 3.053898761546781, 1.3634155091061704, 0.8760604063128874, -0.9960755728530851, 2.269626422197619, 0.03935683725030209, 1.6342372603169768, 0.06097008514586369, -0.19084392436967892, -0.27196531850418093, -1.5282879233648774, -0.9793025660623648, -0.7030310209382635, -0.3086435743592208, -0.3591904266271399, -0.2012244054279587, -0.5401313176081795, -1.8188350276127454, 0.26004593032803464, -1.5365766150364353, -1.176691748639341, 0.4055255227294695, -1.6068157977841353, -0.8527978421867035, -1.4422167472367275, -0.5841217633892234, 0.9266721923979644, 0.45779393193471324, 0.19736170594119803, 1.7097472258981623, 1.2199902652943535, 0.20596620346648267, -1.0448331356835465, -1.0187774856805136, -0.8122981739933971, 0.5411706257910446, -1.0044796506612361, -0.22620750761010458, 0.35425201855207544, -0.7998886236788837, 0.4104059371004295, 0.2577391213930013, -1.4215097968843173, -0.5088840412144308, 0.12956003766625776, -0.24778372293096929, 0.7065377829415018, 1.0362899514568658, -1.0327603076616059, -1.5592491031924829, -1.154963303979019, -2.878166612975454, -1.9632505325256402, -1.278790427917529, -0.7374589631194256, 1.5427625289044078, 2.075437356487398, 0.735466297924635, 1.7179581173003775, -2.3949000471343425, 0.7118173014575496, 0.5593082285017813, -0.37172625189766206, -1.4963961324823434, -0.3795331127888381, 0.47593775058829124, -0.9967881945772358, -0.3401546567760511, 2.840856011174631, -1.2511419301793694, -0.36874004407687555, 0.805561211562189, -0.7990684996476174, -0.12123013421484563, -0.6528333478278238, -1.9416455001260355, -0.2298751226723046, -1.98289252536471, -0.14372982151197067, -1.8876840968520856, -1.0546925741967232, -2.0358281656047628, 0.46034433844341444, -0.8947697489840776, -0.8547214718523739, -0.10637868244805805, -0.14995341340925072, 1.3163400906718192, -0.5670260038445745, -1.0640732628906175, -0.11777975822416721, -0.5867173989080209, 0.9550112615945779, 0.7879013131952823, -0.42335338419465457, 0.5932289851880901, 0.14334152957214336, -0.18835508373575188, 0.19186296917387247, 1.196461983010053, 0.8025378211886984, -0.9567650262173948, -0.6832469026486035, -0.8514225872678018, 1.154871007710007, 0.2712796038995722, -2.113301520827226, -1.9592622959006312, -0.8093940204586115, -0.4110267295121265, 0.31011666443551916, -2.8147952121272732, -0.48926589097386436, -0.3505910488927297, -0.06593154768149401, 0.6340358962534705, 0.4103095522652417, -0.07251590009979984, -3.1588628319737153, 0.03971484786296233, 1.1170695465130012, -0.4367973928544521, -1.2793226490186214, -1.0661115996034012, -0.10422340838757545, 0.9767039185996338, 1.7635863728815038, -1.830353480557033, 0.9566538410383192, 0.32955276278057916, -2.025410145054827, -0.6357075208188002, -3.089815648606398, -2.416857046074587, 0.5555151733550217, -2.30951305757947, -0.9454877317720987, -1.176697456607113, -1.2349461082694058, -1.5451601423701635, -1.4452542180018069, 0.17235409845120434, -1.089232527871552, -1.2720975217870616, 0.8330021301093292, -0.2557532320860443, -1.9020848417138263, -0.19430780066711437, -0.6847370570143843, 0.01306973793891286, -0.2082648030103106, 1.141764903495762, -0.7791838243225274, 0.5075495906500349, 0.6658767527315099, -1.9316823668257554, -0.440462985161671, -0.1480416386942986, 1.3326824177636891, -0.8957521816450493, -2.1958350788040013, -0.1350788505672319, -1.9235014241583486, -0.9690841532092913, 0.6256331821037209, 0.29194956993280224, -0.21847564553999518, 0.06365678084888103, 1.3472406874633462, -0.9878072852810071, -0.5490170044358161, -2.1007236773610654, 0.010248225189311877, 0.5916926014983046, 0.3280462253348895, 0.2512258821946183, -0.3800749376235355, -0.032117122928680034, 0.011082277594285938, -1.0037329343441341, 0.0510138580313858, -1.296468088049478, 0.8282282517041979, -1.902797292567864, -0.45593351048749625, 0.7913602288420126, -0.5000308525325221, -0.8849380658458976, 2.187131506167569, -0.33917028348381356, -1.7008783227584179, -2.7154105667454345, -1.6531643462716812, -0.3167659349519716, -0.9234452266847409, -1.59485410775782, 0.5721499533983389, -1.5284160394912374, 1.3719645270739846, 0.08637346329108933, -1.5471100286811057, 0.9258607093251785, 0.2485563267550426, 1.3639564804126822, 0.007790286931066903, 0.12483949737215949, -1.8142675185312296, 0.45999864836812604, -0.039140503926742565, 1.2356110715568627, -0.4220375368092557, 0.07046011614562361, 0.14534715395684825, 0.2758081545262624, 0.020074351519728566, 1.22807832152508, -0.7281531493114441, -1.3218953142651328, -1.0603491882459142, -0.5382491986553664, 0.002903207221657733, -0.5699431571932965, 0.22522194705241982, 1.1017681254968876, 0.8141389871071818, -0.6395428111520771, 0.9825866453816439, -0.909648661117137, -2.1971825343895404, 0.7586588270288077, 0.8194362669365955, 0.7607168002647686, 0.032870016619480254, 0.3704741191846895, -0.16071766846344757, 0.05080464198395675, -0.3209056563916161, 0.7995191804414339, 1.2434242976321646, -0.5486107230126012, -0.5115050312004639, 0.04047520441987718, -0.40815252450450307, 1.5674746192889484, -0.7295993687422455, 1.2727735908034876, -0.8316104169380095, 0.985063064935, 0.940848011003722, 0.02841847204514882, -0.314616271088962, 0.7103837883433223, -1.1323598119602833, 1.166333437996378, 1.2467518834853772, 1.9520864626677514, -1.4582253778904402, -0.43605383551788035, 0.8349076270232945, -0.11564516424956088, 0.890357362197779, 1.2910482853488774, 0.8007761691751696, -0.5436046169149749, -0.6876205963715724, 0.9303946861755126, 1.2053533423666505, -2.023208417078239, -0.08514696495983479, 0.943714343370914, 0.7813813752150124, 0.4142963342237112, 1.1892756659004342, 3.1468155369914457, 0.08238949221431331, 0.9386546151866132, -0.8343306190056919, 1.58210083228941, -0.8098646916043929, 1.5531030231975083, 0.305486574662516, 0.6771006970423721, -0.9947270971761821, -0.8783565007832411, -1.461379984904811, -0.3101174177141398, 0.4267584174142197, 1.556903713564272, -0.15087450984232334, -1.3845249913036421, 0.9805931435916823, 0.21854689252267057, -0.5616632476984373, 0.08497474106322388, 0.7538990092921605, -0.07679030657861152, -0.6805735168847787, -2.1950007862419527, -0.7637041771342128, 1.0649683098197715, 1.3736820693558436, -0.1784502200722442, 0.5213654826767455, 0.9272372932861828, 0.6570771145860815, 2.3935504026077434, -1.6216877249223502, 1.8444435202862621, 2.1229564142975335, -1.511421579064175, -0.5611688549087473, -0.8144037924050466, -0.6799446168695402, 1.2774494752673582, -0.611552524926535, 0.591254966597436, 0.6730172915211615, -0.6328295629546132, -0.7856543205320107, 0.3730230063797996, 1.9796708032036874, -0.8639468488059866, -1.1256746162075457, 0.435831891590789, -0.5278669715137697, -0.21409346692619188, -0.6644987061826584, -0.560327729907252, -2.174297324246646, 1.127666212523178, 1.45111543899118, 1.1945618451205684, 0.4066438015684138, 0.1863447138946069, -0.02165089602248709, -0.47623195946471414, -0.4408427807492413, 0.5595508452845872, -1.4513686229826521, -0.5127736697527856, 1.6826240644392934, -1.2887443253324928, 0.12884742391370596, 0.8207224793926209, 1.5325876556599645, 1.6906187919049172, -0.7967212564876663, -0.8215450313300988, -1.3694076548958714], [1.637568552445141, 1.965728877051567, -1.7982742395224416, 0.9375679173470082, -1.2188021404474658, -1.3914980625017932, 0.3078001580500568, 1.5757913951523237, 0.2786305330271325, -0.6271220150562075, 1.2494447933703874, -0.8540716116822938, 0.8373583811166094, 1.2445487304144984, -0.7634652342122162, 0.5407357213552436, 0.392714696485021, -1.1214503248969918, -0.5392790083655183, 0.12110962638827527, -0.2892409606934254, -0.61463223887327, 0.15541961621057293, 0.08496664002711378, 1.4819525730432173, -0.39291569797494275, 0.7111088035564275, -1.1630559854407505, 1.9348470464630345, -0.6172817530388561, -1.296176451760493, -0.826668768644254, 1.3885701677168185, -0.030460481626580334, -0.24427575781059166, 0.5924519344224418, -1.039364356546717, -1.6135287871385895, -1.5519929656221125, -0.9933076178360446, 1.7815754874254486, -1.0942597054817367, 0.3887691283533201, 0.030078148316303864, 1.332589420931605, -0.2899380179170164, -1.1656704189083158, 2.031702322423469, 0.14179340973682564, -0.4791945818800881, 1.0601827562985668, 0.055946423181435494, 0.7168749447011695, -0.7225144176519369, 0.929298148466988, 0.9924112141029537, -0.4802686264226958, 0.719365417642662, 0.4789592457960222, -0.12116928584652147, 0.5472282567157464, -2.5720543284714306, 1.3380759621113556, -1.0302241128949878, -0.9659051702383116, 0.07139290234641481, 1.5046493005069241, 0.10203352448255862, -0.4278029171470014, -0.9449197425698415, 0.05130657221969923, -0.9400700484869766, 0.9150918579726266, -0.10046814448705481, -1.6102126418507177, 0.4711708592351475, 0.4093713185214121, 0.3926201506963957, -0.09766867247881984, 0.10782093088644804, 0.8126444601728312, 1.0148113692174092, -0.8377893597098616, -0.5812616515062144, -1.1619255906460446, 1.3169301992512719, -1.0741519547495098, 0.5559089644785582, 0.17896047479670185, -0.011905970921893763, -0.4512225584638325, 0.18010538154705352, -1.0454604096020372, 1.5603549402385695, -0.6522323373222686, 1.5430835330568557, 1.6137694942336693, -0.5832047786013248, 0.6409621720557384, -0.5710865828971374, 0.3944217856716988, -2.4380585055395043, 1.0313779170432769, -1.2682014972912472, -1.3164870683115293, -1.283065450598991, -0.2301390329232929, 0.18877198568253273, 0.24374940918188504, 0.15042748417472887, 0.8066556669297793, -0.24169255832665074, -0.4844449015648059, 2.844969898871543, -0.9551790041423761, 0.625165472545635, 0.6520152235797193, -0.14012676346537353, -0.8607320529051092, 0.13316325201240892, -0.4441981592975471, 0.8694979169646226, 1.6278609025568442, -0.8765640459054657, 1.1659152805944581, -0.2607006706895957, 0.2535416370615501, -0.8867588436583763, -0.6127821388326665, -1.2404922764233803, -0.8018041191457407, -0.7764533783067712, -1.1025057342783273, -0.5749494862852366, -2.5104725140333546, -0.2840079167636021, 0.6910177901372667, 0.2058130390253081, -0.8984778003810443, 0.5626954364931398, -0.9696120389369731, 0.2516409202135011, 0.5755114655566548, 1.9827249428090084, 1.7243194464844596, 0.8406023600140569, -0.12885809089556724, -1.2724817838640832, -1.3564093384677192, 0.4023301016150159, -0.7348448684275979, 0.04637642327874387, 0.5251834254537122, -0.21996563211835202, 1.2705161959682076, 0.21010849304987003, 0.601083851906062, -0.1587300295298141, -1.2498336801658274, 0.5259456234829034, -0.9467042024414828, 0.6962115455900737, -1.4654209832864211, 0.1579924675048124, 1.8781439051894107, -1.0306892411835775, -0.21133107166026951, 0.02133618736330344, 1.5163563322115312, 0.22570578116222428, -0.9656277538024819, 0.33614358837442254, 0.44397243462051317, -1.033659103339687, 0.02921528935757173, -0.8322832148674799, -0.4735634546423996, 2.0068136880421212, 0.25439722039960255, 0.14191254124475913, -0.7464991009853482, 0.151451741343723, -0.5535380863908085, 0.8762484847463627, 1.0445077347297453, 0.7580869516045292, 1.5234764537950476, 0.5686730033527134, -0.33093099752091, 1.4431444376474796, 0.24309586830435898, -2.1547896745881725, -1.2468853376001858, 0.3455493972864813, 0.2367022989862314, 2.125902932353348, 0.9309024242782806, -0.5079909599933857, -1.4593825163810394, -2.2836269422263427, -1.7785066098044044, -0.2223035144448591, -0.36455524684508805, -0.7392860925812214, 0.031729896753280244, -0.6140068614982069, 0.023135716091847506, 2.21954205146836, 2.9623433597132087, -0.28467364378230214, -1.2973571888053352, -0.04062437575206237, -1.4616286336676416, -2.0741588281442542, -0.7670287455660523, 1.5596606640869288, -0.18820287470137279, 0.06561471422197934, 0.8397067937244521, 0.4314406741123483, -1.0491315695043122, -1.525458328795787, 1.3328752912962234, -0.6872045766384977, -0.4962817018766744, -0.0840815415096702, -0.1315449900923291, 1.0954329495729915, -0.4681063679217897, -0.749611410799082, 0.611868796146261, -1.8553496717614697, -2.192319734924634, -0.16091402335080443, -0.21606403347898087, -0.3601010696758959, 0.00961613698007835, 1.209276202978437, 0.6453599777139785, -1.1077522467953504, -1.4861216853436652, 0.09122220606347603, -0.6895673297221971, -1.3482355564677257, 0.08827838146866075, 0.19319733017143947, 0.9526674255702743, -1.0953729993316723, -1.4092783337366628, 0.8271803530479702, -0.3690376669493569, 0.9254875049486596, 0.4459139915435678, -0.0006665798620651372, 1.041069380283084, -0.6312130460681279, -0.9197775405131117, -0.12460305582178474, -0.28186722101320655, -0.15532428338416057, -1.05641748573888, -0.0014292189889924482, -0.04534040616081439, 1.5908016849087019, 0.9336181585768809, 2.9057017848464595, 2.6263954596718553, 2.1840874089394706, 0.5148415740297876, -0.043336641353081344, 1.7929004730619245, -1.1754106844209053, -0.45711306936971213, -1.0558540787531416, 0.7176763300725518, -1.2205476621713418, -2.445463789599727, -0.2907950911316652, -0.3909591818668296, 1.5706044166959963, -0.2960533599238466, -0.8178412049887847, 1.0123846748617935, -0.0016456779577911002, -1.621507218600571, 0.5998987114104499, 0.2910646223857102, 0.73488697284292, 1.4837500912428367, 0.42920182682010655, 1.2324612339559555, 1.3174279566583729, 0.8943558853803456, 0.3629374655448192, 0.35556809304242865, 3.065605294809703, 0.6348359480590504, 1.4339500131867893, 0.02470594481598808, 0.4751303179480731, -0.8057909812208386, -0.19777621173568105, -1.8902126833324517, -2.7512282202657197, 0.5045915409790183, 1.0926864446869025, 1.3161933977351599, 0.30926801386194575, -0.12951965770054324, 0.4992259337764361, -0.6148586478464375, 0.24387350025480659, 0.09330009586816726, 1.0490709655091162, -0.07198652704928069, -0.7079633189460118, 1.4142511560256206, 0.9057601672653087, -1.114924900041863, -0.713864810084522, -2.3558726769974143, 0.06896545704585749, -0.2999738279310788, 0.4964855952776871, 0.8444056806918612, -1.9716504246926718, -1.2667813251076216, -1.1802123222230338, -0.9967024211797019, 1.0994574170099178, -3.313202748812763, 0.04487894587488441, -1.6798197574863258, 0.2925813403205223, -1.781325436737602, 1.1032834429877556, 0.2699189874084537, -0.6719082508979538, 0.8655343318288585, -0.5514118884158627, 0.2913146762693863, -1.2398510376120357, -1.1435049740320196, -1.081667076776397, -0.2855997362253006, -1.5838694994990068, -0.8996269803067756, -2.5315487523566786, -3.263324190199942, -1.0651405602641162, -0.11968633095539483, -0.9885903449285101, 0.5364513192825262, -0.7087569548460366, 0.27826078133556315, -2.52858525423493, -1.2685321565972851, 0.49524805502075453, -2.3615274004482836, -1.918575475725967, 0.10639410910411022, 0.3072216724389352, -1.6389551422608624, 0.9040563425791674, 0.5365172500536439, -0.12984539633351894, 0.1820214366840352, -1.4179373120899705, -0.12672456155041167, -0.8377314896360866, -2.327937896556418, -1.9368504954055419, -2.3171436609310554, -3.7956231480222495, -2.363712379020748, -1.8474541419685933, -1.2085450167895846, 0.29591351999958126, 0.24987463030721044, -2.6965292241777226, 0.6476897257060905, -0.07404207736194292, -2.031276527660492, -0.2328598006154392, -1.1539844759276037, -1.865204569597469, -1.0625218299708237, 0.5578753323910512, 0.08827045084378803, 0.7411143573428454, 0.1754631737980312, -0.28928633062768017, -0.21070698148271316, -0.5636728301142995, -1.4791383905146358, 0.44537343759280557, -1.1365455161269424, -0.9138749980934556, -3.576167542384285, -3.9443806715298053, -5.254398639255737, -4.33222253870548, -1.202834513427697, -2.4740345585605694, -1.748564594285091, -1.2059057171940555, 1.3887323670964493, 0.4634244922772946, -0.5180607033976298, -1.0517242409727523, -1.5268955010618452, -1.0169443182926088, -0.8241445515521876, -1.9827013442920776, 1.0732834503740312, -0.2219180890996515, -0.6019590513118366, -1.2051677289622658, 0.8456687537167864, -1.310714498647405, 1.5590194016895995, 0.6250662075125415, -0.08204734929560552, -0.371269584791112, -2.0207463654724043, -1.1442310488091005, -1.0651989430485795, -3.2480930756106403, -0.16884633554712736, 1.3634011146424192, -0.6238404871660286, -0.6479552801332673, 0.7872718145358211, 0.9741585981301378, 2.679510071102387, 0.2684568899586128, 1.5558590281497748, -1.6017567764024032, -0.5977162531438485, -1.4721204827155252, -0.5791914253860728, -1.8403370932108964, -0.716523653259242, 0.19673782687884886, 0.40982255869547857, -0.9918998089098963, -2.7936347444860115, -1.4452023552360609, 1.8304098581425254, -0.149285261166348, -0.8161607632968335, 1.2470670874696022, 0.6937098189717857, -0.44681981654887615, -0.3520149459744694, 0.5515294929712655, 0.8757913234240913, -0.6624310145633133, 1.6675851533524564, -0.19801391292187723, -0.6816361455535574, -0.5056097643119736, 2.159710128260673, 1.0265764144536944, -0.9342350263454908, -1.4258928479395534, -1.7530651542411209, -3.478982082272057, -0.4814708464355557, -0.9613249904556311, 1.7890624190592082, 0.5362756482282384, -0.3927886576585591, 3.5853099399203585, 0.2584093067266293, 1.8386125859986953, 0.47192204505068003, 0.1537563691567045, 0.46426968504067034, 0.5220195738920422, 0.4898626656172345, -1.8644014118598529, 2.214270315949915, -0.8492665206815193, 0.5057618739189503, -0.10486230625928998, 2.0653288792850537, 0.47882029910110696, 2.300923590361492, -0.10437601431763456, 1.871058046472402, -0.44726338434207324, 1.7734890741991787, -3.7763255109832343, -0.55457691057229, 0.15883326320338864, -1.0208233655911585, 1.0834162419199787, -0.6965274596251279, -0.4288735693265748, 1.0162720369250586, -0.23152517240278764, 2.001776438141477, -1.094055132381611, 0.17924664249615785, 0.12932663962278598, -0.8497260459236675, 0.5037543294418304, -1.1751240745474818, 0.35285375723171325, -0.04578052115577631, 2.1163732690181716, 1.025830417159118, 2.0384310338825125, 1.5553879818931304, 1.1967732179328592, 0.7964888114842321, 0.9318848961552365, 2.190229500236789, -0.8724988045539042, -3.105351469850473, -2.2805157648157546, -0.5176854189940004, -0.954341183931356, -0.18083274780381509, -1.5000572831606784, 0.7279380221745804, 0.6244437643980617, 2.4832284690295006, -1.6132763696300652, 0.49490518763028896, -0.25149807811882935, 0.8735048563206214, -1.1143107606146263, -0.6462737937177123, -0.96296005327204, 1.6834754501279017, 1.7752816925231618, 0.09296587384322111, 0.5003558424071783, 0.8166350115899172, 2.108679528127805, 1.706998167720859, -0.17850843009162048, 1.0607149849612394, 0.40274645332757586, -0.26404994652398756, -0.2054033476089859, 0.5278615393595856, -0.1788319783753747, -0.7448792487036386, -2.231487420807482, 0.42852947474361425, 1.178371387778778, -0.7489709121318268, 0.8928517036195474, 0.11094666493937386, 1.3222818877029203, -0.7717057783365932, -0.6448397773933927, 1.0500704383023427, -1.6777950547581733, 0.2607887038701997, -1.321091370789365, 0.8464234545903723, 2.2359221576695583, 0.04649107106804383, -0.18987171500067632, 1.517534704156649, 1.9943290455663893, -0.6248517479677688, 1.9823571134331235, 0.45127567018998105, 0.21070000516964354, -1.27060017676061, 0.694907339588375, 0.21997121966425165, 1.221706571619825, 0.8887893006550857, -0.02657824775521479, -0.6964665351945695, -0.9520227448326966, 1.553952537738336, 1.2649430306804004, 0.42598678546355484, 1.518455704580095, -0.15681783286351916, -0.8228352881918076, 0.7852331596883921, -0.017868661248881795, 0.612193365636173, 0.042061857907637785, 2.0259093389944036, -0.2817156162747428, 0.45893697694764957, -1.207858178884375, 0.05033852030684879, 0.15448665941615858, 2.0821051527316166, -0.5093870021162694, 1.1744697472890304, -0.5311043299197695, -1.3783502083565764, 1.0027141995497464, -0.757038884488589, -0.7686122691708451, 0.8729196809434739, 0.9103515718807448, 0.8206806806310586, -0.5768879453635616, 0.7412758589769072, 2.5578846152747103, -0.08922387396171066, 0.9753733647497009, -0.16681249554183933, -1.5262571274670602, -1.5882927766143158, -0.21543925264734382, -0.4018222492573528, 1.4383187709009457, 0.9544329879152486, 0.141036180160304, 1.7777147762752807, 1.3239569273663394, 0.3586300489960789, 1.0599476837322512, 1.1131586196429086, -0.4051649044354627, 0.13632817014568974, -0.9714007453479365, -0.6258890431355083, -1.7507779604654405, -0.5398076327959143, 0.6309545761776287, 1.600090392883349, 0.9529890350295954, 1.1897182401462922, 1.0145656193949903, 1.4434643682122432, 0.9866918040850591, -0.5700379913464605, 1.0925285770626096, 0.194392569889122, -0.032832916942657636, 0.2287727210555467, 0.11930048149072121, 0.03939158592303116, -0.9760193868702943, -0.32519498192179036, 2.5807347464733463, -2.0245775233322436, -0.2115817287788163, -0.2227145780264008, 0.6910749711750749, -0.7147004876096257, -0.31093835501963324, -0.4769241664443361, -0.04224627722817328, -0.42333711157882703, -1.7169288825799907, -0.8235193278295779, -0.6497784954466347, -0.16619326087357697, 1.931149487891054, 1.7127301469448275, 0.36052507239636783, 0.05862363323352828, -1.1055620004111886, 1.3347651756004808, 1.2446735599090273, 0.8131139935265074, 0.17840657425570824, 0.36511831307883563, -1.2647042178221024, 2.2664175982003307, -1.1682321990146023, 0.4894424799940312, -1.7450473796013193, -2.354256493503251, -2.385688449436987, -1.3952227906139576, -1.28729776003802, -2.172793636211458, -1.418455005238351, -0.7227386220181802, -0.6572578256923529, -0.6520345021338428, -2.0454790609815716, -0.10668833103863493, -0.5108418990256695, 1.7022510052097508, -1.7384997541230307, 0.9142374450138938, 0.37070877930047325, 1.011732244947421, 0.724757749573998, -0.03519187023481218, -1.0050328323636686, -0.8808843065318157, 1.22903317879138, -1.1529525441553525, -0.14876804800627028, 0.21237514528508258, 0.7289657151492417, -1.0230968556674758, 0.5365973653937144, 0.37286852582062235, -0.5823843958772253, 0.0456156462419903, 0.9400280555358383, -1.68235293984904, -1.1380669340183998, -0.8590231664544303, -1.3485154883682813, -0.22262417170246523, 1.2964889659182803, -1.361566771839374, 0.06532005709364852, -0.8913169876885736, -0.7160724363574877, -0.646837932677681, -1.4784094128214822, -0.1434783314582998, 0.027854213516112343, -1.465553184117552, -1.1640934940553145, -1.3452751802281813, 1.1115047723945148, -1.2326608315575354, 1.8161779705908998, -0.041863343879437895, -0.3979836595948348, -0.22658826886409322, 0.6754757295447704, 1.8263077018685576, 0.7132129544163641, 0.8224769028176381, 1.3110609333271852, -0.07246403360849558, 1.2148975863499503, -0.49379565104281475, -0.04887774260836167, -0.4970624426513046, -1.341896396053558, 0.4829332796666469, 0.24095671252626877, -0.6571649415533961, 0.006359185947400526, -1.0027190116623148, 0.012909198752850244, -0.6900556817329969, -0.2735713726061203, 0.32340722105025865, 0.5126914603262333, -0.22250184008759838, -0.7920983164342428, 0.053342276466955135, 0.998798089448386, -1.6597050566819267, 0.05343543931008248, -0.7036736951503827, 1.886488654154945, 0.3707394956142588, 0.5435905909973641, 1.0963642654967383, 1.3788820759971314, -0.36439039829201036, 0.19087474925529008, 1.8182500984500929, 0.358019259281265, 0.013255403790894217, 0.9582192502498944, 0.9701291202097685, 0.7139899991019933, -0.7296630130517024, -0.2996137784801818, 0.9334770967734014, 0.86427168958314, 0.7606914975689638, -1.3625678317143946, -0.5537053922199462, -0.5443361432730246, 0.4971406940747766, 0.4073667022274632], [-1.4003141541509205, -0.769353385098264, 0.789751801427765, -0.14176341384643643, 2.0091087261666054, 0.92582526509787, 0.1980357498423461, 0.14559913566950594, 0.6263347843438061, -0.8773638137289003, -0.33633267078585455, -0.6855060035261944, 0.737551113998605, 1.59306025325471, 0.6060275444587104, -1.1870865367337937, 0.05268648665409151, -0.19099149554391276, 1.1230038375621456, -0.37464777953456657, 0.4781351636093714, 0.8151136937421708, -0.026013144377814084, -1.2158104263683545, 0.038559161388842966, 0.5373789681537775, -0.3422485649689162, -1.036827996995597, 1.8180977391212565, 0.9801785670183862, -0.10193442256846112, 0.5918560495216244, -1.1020352341118402, 1.0339917345517953, 0.16385421610006912, 0.6121587967462475, -0.1294148606937826, 0.3464807051739835, -0.08595310456266635, 0.9470814665210397, -0.31999253236968656, -0.3275488386329723, 0.3464169418110301, -1.7721349812969713, -0.36048192547022984, 0.15265612335496603, -0.13615833233462915, -1.0023891784197148, -0.10835888473339704, -0.38474886774076694, -0.6870707127729947, -1.1293990189569088, -1.209379818290474, 1.3052563410829638, 1.6296624088285074, -0.3130440125962506, -1.1327126047846479, 0.03655126147698296, 0.4582273373199439, 0.23211274223120082, -0.22230387680308136, 0.7741447424963325, -1.3986587839394224, 0.7393411869583939, 0.036147088367640974, -1.879517881185188, -1.229851929622334, -1.3101047445116047, -2.4359714665836405, 0.8413928991912824, -0.6689367412641453, -0.04117489228953769, 2.452851599386166, -0.6765724201748908, 0.18745866545299314, 0.7590915012760359, 0.6417181805054576, -0.1905413932931152, 0.4773593409721757, 1.249992944123683, 0.691207072566824, 0.3999838212638307, -0.43313136294364724, 1.342675778900246, 0.10539258459596677, 0.16035926309686085, -0.48829970298230096, 0.2667006602583918, 1.9886346991173092, 1.0179057207945499, 0.6512771608028259, 0.2938104024608907, -0.4274823786818926, 0.47396558310892767, 1.3389675292321208, -1.152469270203025, -0.6905854546089021, 0.7021183122037684, -0.22055144050524572, 1.3405613613927745, 0.9195044536194992, -0.44236462705599305, -1.5989057917487477, 0.3764596734587781, -1.3498430662230134, 0.8565679404832027, 0.8290671992675587, -0.1019811396256491, -1.4454742517798376, 0.011041971631292028, 1.353366007754335, 0.6975217498049081, 0.5203438846065247, 1.895547972531012, -0.46162586842114556, 0.10296155636664277, -0.6597711648757911, -0.7182455913534525, -0.35814546013658627, -0.16689671869187858, -0.10119698232525788, 1.2653988924717556, 1.260729591037789, 1.9089543422261517, 0.5743300371763831, 0.37382473627882684, 1.7485730187947865, -0.1758052230796983, -0.2191920745758599, 0.4862095394195383, -0.8927999239424521, -2.8255928180671233, -1.8157268959572497, -1.738445225540372, -2.780402107517381, -1.6131322727737818, -0.5817800291942353, 0.5253201711680078, -0.76238303639149, 0.8534472987313424, -1.1441987891685783, 0.20834457357690256, 0.48426727645666084, 0.6198486571505684, 0.11917478606094681, 0.5939377153102531, -1.411224110778276, 0.02956421116066271, 1.8026239206681014, 0.6552143039683689, 0.5107117748937416, 2.094370933746151, 0.7532386310103438, 1.4481499651432654, 2.2458473578029787, 1.707493911141785, 1.680676405742448, 1.1432657913827597, 1.5080765328580332, 0.08041806672117136, -1.3135301647300177, 0.9575845342351478, -0.692488963050777, -1.029837731465432, -0.9142303304802557, 0.027757995833501903, -0.603064856024994, 0.7178026272770789, 1.2170183292548458, -1.6082763957936235, -2.354678948635647, 0.41005525891619765, 0.12235482523663188, 1.6487637099893675, 1.0096256605926852, 0.16091912600644492, 0.5696389294132758, -0.047016293760909926, 1.2881556970683796, 0.43022443243423114, 1.5820567352271946, 0.3403427414800449, -0.13583993104462444, 0.9247047579784193, 1.072032420325667, -0.16954163404112862, 0.9893845866138054, 1.96999645808009, 1.2290465496449177, 0.022529779763124667, 0.6669970657007686, 1.1906910985233539, 2.1901342544080125, -0.13601857649160445, 0.040347916213308736, 0.5115408292798759, 1.0424457494103894, 0.21427246370936254, 0.7072280241908332, -1.2649246162833483, 0.948203459929497, -0.19694936562834936, 1.1291883081419654, -1.217185534614686, -0.7684550445238891, 0.30036529308544596, 0.3866352786450016, -1.492478143352425, 0.959251040330489, 0.11314220058248799, -0.2931483009176742, 0.6455254930431761, -0.12485837240867151, -0.2507270383226934, 0.7388265214845616, -0.33394231851609296, -1.1275636399095204, 1.9145971589850774, 1.1150410452743174, -0.14896655757654728, 0.683004973219243, 0.6673546876082947, 2.6318611838010755, -0.23846410163840293, 0.6198939350209604, 0.5184387703227041, -1.532228381003913, -0.6096971174729368, -0.3278174753330136, 0.9978634878832923, 0.05754766546351744, 0.25668227432155705, -0.33314111196838375, 0.36343081456798443, 0.4256549956730304, 0.40787898678923484, 0.10143178864040703, 0.2010319506302804, 0.4200704451860441, 0.9376557654095753, -0.15664223715553824, -0.22234633001463808, -0.7130883084046968, 0.5094303329986152, 1.2692534728745437, 1.7799159655864323, 0.914845563893221, 2.384167661723971, 1.9430512423482005, 1.2629452603601428, -0.3122588836834705, -1.4619851075472274, 0.8931871761990889, 0.7622527060079469, -0.3357205173131312, -1.1917649394551604, 0.1351918217051667, 1.018720289425024, -0.2487015144367132, -0.39219094551566147, 1.1760290992446056, 1.483384489964123, 1.1276255149250682, -0.23220858360636662, -0.08708315868648667, 1.4666855004201935, -1.9623692874813516, -1.147875121248976, -0.41453825502510416, -0.744303050982389, -0.022117454490643042, 2.177361738985975, 0.7861352740455593, -0.3894809800584704, 0.33918707623246, 3.0763105910491326, 2.39361058239505, 3.068163147381437, 0.9817296498056078, 0.3578106990816379, -0.9773536970761278, 0.7274765513405174, -0.1577450293571238, -1.0087993398521982, 0.9822197637578017, 1.690491726391149, -0.9685098505197436, 1.0252171734179691, 0.6218309385124418, -0.9728493365356168, -0.2661330611832338, 0.8596173941961619, -1.0732696397905663, -1.2339333988226455, 0.2968152028804728, -1.370220739831075, -0.8314232157893754, 0.2172460559403119, -0.6670738539331652, -1.2961977311410067, 0.9561666737983731, 0.39776512483329335, 1.53161190837049, 2.3592437861525193, 4.288788420579335, -2.1567613636439904, 0.1960303963256951, 0.14211710677825087, 0.8799396294997318, -0.44043059872393464, -2.824150112711177, -0.2938949405628223, 1.1712683238559396, 0.5110641515291438, -1.9149559216754413, -1.2028064857643552, -0.18912979039799463, -1.3528135199418776, -0.9319012645232415, -1.8202917913121306, -1.1518234775940144, 0.8939525645758981, -0.3225280462295066, 0.17903270495089696, -2.076000653253886, -1.473597891204683, -0.7141708309384501, -1.6644808386688457, -2.200322208012067, -0.34041852670742573, -0.13550689818024184, 0.2619225312546643, 1.9506465015600698, 1.5525601466926513, 0.0491583951859773, -1.380761191296044, 0.7232566382394827, -0.5702802115985249, -0.1557679543938382, -0.46198100247251267, -1.1503815136375697, -0.03629893594744025, -0.4947405918876091, -0.10222884248280513, -0.34736388008360575, -0.8141532065451225, 0.5373961118747566, 0.5290174929446981, -0.7222580478482634, 1.4265777075178685, 0.35324721093274963, -1.5965499700293084, -0.46661638905730624, -0.632052751551622, -1.177061673794671, -0.3104216112077319, -0.05442987718198192, -1.6862086135101764, -3.1025585446306994, 0.10099994221189368, 1.764770748163412, -0.50068009894212, 0.5467649110242494, 0.6072098760034911, 1.625439551006246, 0.13457212173118735, 0.7025596898482489, -0.15758619122139952, 0.027969295934636394, -1.8796411852855865, -1.0691966892603246, -2.209870393456747, -1.109737775499614, 0.2461371797227311, -0.8030314545471968, -0.26208656629207067, 0.037526727678437816, 1.4545512759672172, 0.45916817114806907, 0.35409902479881816, -1.9012382989097125, -0.8993009645011177, 0.42517196028593307, -1.4444822108883744, -2.1817094273027693, -0.42610583927847917, -1.2372254797873872, -1.1430720381270663, -0.7084455097223388, 0.9099685115410384, 0.2090148673928386, -1.591700890948896, -0.9454192080695433, 0.45563004480759384, 0.055396783691007694, 1.0634901558472154, -0.9736548181615665, 0.41075163704063666, -1.3992131663579714, -0.8080175674947919, 0.48450398386306087, 0.28248293734073876, -1.1134658466495098, -1.1180856588088266, -0.24518892189654592, 1.301170333374834, 0.5599633786399667, -1.3609943517067151, -0.3405749354311559, -0.8567673160580223, -1.0580877139013187, -0.13258689353252737, -1.3624893349713325, -1.571362247629629, -1.2519918228680242, -0.7101831454173749, -3.0550271095466033, 0.9537616305410953, -0.501675924275511, 1.816216344696193, -0.9049015518034144, -1.3569568238170269, 0.4461814262465144, 1.9091274265351807, 0.663053127010679, 0.3734886958155088, -0.5959821711023581, -1.4131582445036814, 0.6355366989223618, -0.7104006962368206, -0.37071663661644066, -0.6121477770423225, 0.7838927296330553, 1.130191667786522, -0.3029463143499387, -0.9868730894099338, -0.8030055806284512, -1.5216922316760266, -1.1480169138724838, -1.4510463518199883, -0.7686200924179251, -0.30631872905590807, -2.239951004425617, -0.07738051342500349, -0.9880997778609077, 0.48268341311666596, 1.2605041354952282, -2.8983139758564307, 0.594881292739886, -0.3101175624076489, -0.4913749943600473, 1.3316465571028557, 0.4448157053047663, -0.46887409079077363, -1.8363020727333308, -1.4291078870605347, -0.9026492187624904, -0.54512059387066, 0.34908219058574863, -0.2043299681559149, 1.4722291980118036, 0.7240705788105165, 1.857283142665927, -2.1686691857908245, -0.055735810649937025, 0.24244118956156868, -0.7459481224292647, -0.7414749171647982, -1.461102487962031, 1.316969239661877, -0.7063866136691171, 1.3847996128930777, 0.003877348964254719, 1.0012733942086756, -0.43161706930507476, 1.294927201449035, 0.8681365001086221, -0.979570025445828, 0.3166349187018104, 2.2024538402057225, 0.852101986508714, 2.4459715610299964, 0.41032764837617225, -2.1134075322952715, -2.2828691025342853, -0.546589781418356, -1.0580196821855974, -1.0933881107394794, -0.8030132265374739, -0.48801564637117406, 0.7437459452303302, 0.10397737653721457, -0.06647069034554583, -1.443305300186267, -0.49783784977421214, -0.20681412628948048, -0.5364025504046637, 0.29449369669206, 1.5533970123257932, 1.7890040111495784, 2.149717364415472, 1.0790490440691083, -0.06081065134186598, 1.7301241694745548, -1.0337693161277928, 0.9090687687019541, -1.8766272761516256, 0.7390839444919896, 0.7803632044456967, 2.6010935256725296, -0.31697450308395897, 1.7641460632319472, -0.595277368709775, -1.3373947438103329, -0.39747927603532984, -2.534625969839363, 0.17380206955965413, -0.20090684144477722, 0.4072397249113222, -0.5770109197985198, 0.8824311982787975, 1.2992233417252135, 1.323344962310282, 1.1143072103625271, 0.42275984458759636, 0.4353162540148058, 0.9356467842839675, 3.3651393401650753, 2.5893126213914623, 2.3571517089859477, -1.602874328480976, -0.10166024973446963, -0.29555284350130806, -0.9502072465956888, -0.96461930625026, -0.04360929246492647, -0.5224353212228597, 1.135893141812864, 2.6042543003631002, 3.5735367292296734, 2.165493179972077, 2.5825577478070243, 0.032180594095041634, -1.5259759270988886, -1.075610265513533, 0.18737489233504068, -0.9120991990156687, -0.07228109479138366, 0.0033899624790785956, -0.06451129419794042, 1.7515477397091845, -0.20849502834154607, 0.7296548308805458, 0.81293747532313, 1.9326577857524607, 1.2316993331421782, 4.14535037591221, 1.0744889757588676, 1.2223626390823614, -0.9243172465971062, 1.299797169639048, 1.374377809251594, -0.8035503605163132, -0.6120059517969656, 1.659109666825408, -0.4973627820836003, 1.9648478882837184, 2.563711804013452, 1.690459864359908, 1.6363301144942792, -0.9572677957244944, 0.04971829474037892, -0.7480627874874819, 2.04432249799794, -0.627163016662991, 1.4296006861516084, 0.49589108234434837, -0.2744162567857039, 1.148043921393837, -0.7521152595466463, 2.625740278635618, 0.32322495764799175, 0.5053826845006317, -0.20453343741727537, 0.650091793426903, -0.6117784234514793, -0.8962301641791843, 0.9072205255522376, 0.3829581721846346, 2.7187455939340714, -0.3424251373843114, 2.4006854068846173, -0.6255483071597896, 1.974309542018495, 2.352117526264472, 1.7786212658610758, 1.1731204623389373, 0.22541741745580435, 1.2241252865463277, 1.0497878609797378, -2.9039003818585023, 0.1078641190230799, -0.1992415334753298, -0.297891198331279, 1.4567851966384484, 1.2664611397551195, -0.5618560021984995, -0.5682439627962367, 1.5890913065277477, 2.2855688990587213, 1.4787420854460096, 1.1214553819634934, 0.5791825262338747, -0.018874161163327026, -1.2174947136806413, -0.9512498633757859, 0.7735226792741966, -0.5279874563739908, -0.5751867119107081, -0.839683708806644, 1.4631239414051427, 0.7988692402156129, 0.41897812319762756, -0.00290763691245589, -0.08588254068995484, 1.9711635538308023, 0.3144215566552558, 1.381829823526699, 1.108328069972841, 1.9403389565280313, 1.7245176142922134, 0.22965748116140075, -0.1515204202076699, 1.004062722287401, -0.1998743960819358, 1.2467898464270621, 0.9567837122256583, 2.389607537129919, 2.6591327195137926, 2.982954552664244, 0.38875232892835304, -0.8465854736305836, -0.07450369061373789, 1.6577519254107849, 1.1595948361412878, 1.539013999404335, -0.15508347046521986, 0.3758264012473796, 1.6357848468289713, -0.8375061038854152, 0.48934523817824477, -0.7238652334480951, -0.1874995480715715, -0.07405666948210265, -0.21755300756495788, 2.577804027012592, 0.1774701882032906, -0.3262101228262255, 0.8630374918986997, 0.899066952127882, 1.4783382242798992, 0.6506719691959626, 0.22682937096279812, 0.9890454434797195, -2.414677827587006, 0.06654934257137834, -0.03631910890434924, 1.2622984695499477, -0.08505824511504699, 0.43221770074944055, -0.6199698292746042, -1.2248981921234587, 0.1930582371441319, 1.841875129451002, -0.2401967919564593, 1.2395193194752185, -0.06280841602512548, -1.463649305606864, -0.3345514452004945, 1.7975940755730355, 0.48067955221673037, -0.2495496955501401, 0.07638848592308609, 1.20647204904914, 2.5868691105965658, 1.5778861002361855, 1.7935938995834695, 0.4342817139646938, 1.1391993127173814, 1.0256424623273588, 0.21824123031996664, 1.5141643810161047, 0.7636942549877636, -0.5822272684535179, -0.631742347064885, -2.0524044115092686, 1.1966591290234767, 1.4540744310545086, -0.6061018958756255, -0.3668528794169138, 0.41414155153902266, 0.722409158398428, 0.12779740224606434, -1.5130313265285649, 1.3827723331669788, 0.676119627875973, -1.0568905941065636, -1.20660361576038, -0.3171778232456596, 1.5143656754437769, -0.17438280756250932, -0.5626095311045782, 0.4807373649659107, -0.2728909920307213, 0.35696640225630344, -0.19434857687233842, 0.5403385274048045, -1.1109889222961904, 1.628724105199205, -0.4825439355305634, -1.5032958841489406, -1.5000588577078942, 0.3799137766182154, 1.0468138854817868, 0.2260404142232725, 0.4420426422423418, -1.8252046940919544, 1.6282616478967675, -0.636687712520254, 0.06430951115421102, -0.17235563832188214, 0.6374926429289389, -0.8952364338156965, 0.23734682776568886, -0.2999798655072997, 1.012273355912424, 1.4630936561581853, 0.22827876776216285, -0.41730441773168203, -0.3091483038265018, -0.3553504190800905, -0.6661447845351782, -0.2613565765365849, -2.5415633241341142, -1.584284728546644, 0.8454073023169998, 1.2880015674180942, -1.7460518833754168, 3.294765746370602, 1.2110696616029213, -0.16071221304162783, 0.42403377952122484, -0.3444310209068158, 0.5590359380099299, -0.566966733630542, -1.3018000106214243, 0.4957660465321775, 0.3461769280029498, -0.6303829842241782, 1.987192465787668, -0.9464723784448066, 0.0568561134134421, 0.7560320153482171, 1.719992243458112, 1.4769336221351548, 0.010617444068650589, -0.4134133163297762, -0.6958580097177021, -1.6265952971725828, -0.9044338452858173, 1.552656236709793, -0.1816025378111708, -0.8968496352374867, 0.5176775645128423, 0.4632485556088257, -1.4068056872108157, -0.06360229911151347, 1.5588311059216076, -0.6117549108415763, 0.3994866527729764, 2.2243103787967433, 0.7831902645677268, 0.8636747214353697, -0.28469804991364056], [1.4837233075357226, -0.8289402069831144, -0.8625285966088034, 0.753447104057905, 1.3448277308922856, -0.06617768822453576, 0.635381395620473, 0.37893942852851126, 1.316671939763555, -0.2760628304648599, -2.5894476042153527, 1.0038950868932381, -1.0648277344742332, -1.5657282074754384, 1.1832495166725847, -2.7900662929822473, -0.7249568824393569, -0.011591365852838875, 1.5323951074406912, -0.2558086631248388, -0.6133365015186127, 0.14089127008735297, 2.0296149416945135, -1.104715587315421, 0.9401381735374976, 1.262775546898828, 0.5182623992723185, -0.424536633902, -2.3488492558111793, -1.65568574805054, 1.1181193474878441, -0.4968553823695126, 0.25940259053367015, -1.155629840885255, 1.0395285451714735, -0.14151675418187393, -0.7885296854293723, 0.27406213035074145, -0.6238739337860632, 0.2522579547047205, 0.2778951425364327, -0.45393115078900104, 0.823814367702064, -1.4638548999217584, -0.221478668493807, -0.4170907526184885, -1.310032210193297, -0.8532312632388447, 0.7135895562943285, -0.5315867506888967, -0.9761895578047775, 0.6757223184634913, -2.226572133852605, -1.290253446524965, -0.7753929035131781, -0.3286235973198552, -0.4689336745421893, 0.9245111327846363, -0.5665872259375166, -0.11878918882546008, 1.2543368330712648, 0.7819909926066374, 0.8302626297045965, 0.38982780238177356, -0.4399593510572906, -1.1656268910860579, -0.13649142798402583, 0.6612778767297257, -1.0737928422257192, -0.5932683477786648, -1.9308172708703961, -0.05828690828327882, 0.07669216849121924, -0.1282196919153651, -0.44819725096690965, -1.1113201749852346, -1.097084560111067, 1.1099549725348916, 0.9994750945116676, -0.6439317680902323, -0.2889671696121214, 0.274855793904996, -0.5104702012166357, -1.6914788459997865, 1.0287562592557362, 0.5006202991190681, -1.7464978070574388, -0.24470018573939986, -0.9707081093237067, 0.5260732225828887, -1.053685987339344, -3.203269703286178, 0.6950386374441218, -1.0478583243427078, -1.6875531387995752, -0.08976743268293944, -2.2647928187338864, -1.5063279069531281, -1.6375408685807153, -0.32681760017965716, -1.6211333088732887, 0.09310516799335262, 0.24818379355480547, -1.3260619955337827, -1.8809251793811375, -0.3798093809913044, 